{"learner":{"attributes":{"scikit_learn":"{\"_estimator_type\": \"classifier\"}"},"feature_names":[],"feature_types":[],"gradient_booster":{"model":{"gbtree_model_param":{"num_parallel_tree":"1","num_trees":"100"},"iteration_indptr":[0,1,2,3,4,5,6,7,8,9,10,11,12,13,14,15,16,17,18,19,20,21,22,23,24,25,26,27,28,29,30,31,32,33,34,35,36,37,38,39,40,41,42,43,44,45,46,47,48,49,50,51,52,53,54,55,56,57,58,59,60,61,62,63,64,65,66,67,68,69,70,71,72,73,74,75,76,77,78,79,80,81,82,83,84,85,86,87,88,89,90,91,92,93,94,95,96,97,98,99,100],"tree_info":[0,0,0,0,0,0,0,0,0,0,0,0,0,0,0,0,0,0,0,0,0,0,0,0,0,0,0,0,0,0,0,0,0,0,0,0,0,0,0,0,0,0,0,0,0,0,0,0,0,0,0,0,0,0,0,0,0,0,0,0,0,0,0,0,0,0,0,0,0,0,0,0,0,0,0,0,0,0,0,0,0,0,0,0,0,0,0,0,0,0,0,0,0,0,0,0,0,0,0,0],"trees":[{"base_weights":[-1.0038522E-1,1.1120007E0,-5.3040254E-1,-1.0594022E0,1.1117889E0,-1.352347E0,1.0721891E0,3.1305946E-4,-4.0773126E-1],"categories":[],"categories_nodes":[],"categories_segments":[],"categories_sizes":[],"default_left":[0,0,0,0,0,0,0,0,0],"id":0,"left_children":[1,-1,3,5,-1,7,-1,-1,-1],"loss_changes":[1.283342E3,0E0,1.5819503E3,8.5554706E2,0E0,5.3988037E0,0E0,0E0,0E0],"parents":[2147483647,0,0,2,2,3,3,5,5],"right_children":[2,-1,4,6,-1,8,-1,-1,-1],"split_conditions":[5.919817E1,1.1120007E0,6.0801376E1,9.3934425E1,1.1117889E0,5.9204784E1,1.0721891E0,3.1305946E-4,-4.0773126E-1],"split_indices":[1,0,1,2,0,1,0,0,0],"split_type":[0,0,0,0,0,0,0,0,0],"sum_hessian":[7.8171136E2,7.856199E1,7.0314935E2,6.2575995E2,7.738942E1,5.892149E2,3.6545006E1,2.9314175E0,5.862835E2],"tree_param":{"num_deleted":"0","num_feature":"9","num_nodes":"9","size_leaf_vector":"1"}},{"base_weights":[-1.6063589E-1,5.660763E-1,-4.9504206E-1,-9.503928E-1,5.6604856E-1,-1.229123E0,1.8389312E0,2.4300908E-4,-3.710338E-1,2.3364049E-1,5.6965166E-1],"categories":[],"categories_nodes":[],"categories_segments":[],"categories_sizes":[],"default_left":[0,0,0,0,0,0,0,0,0,0,0],"id":1,"left_children":[1,-1,3,5,-1,7,9,-1,-1,-1,-1],"loss_changes":[4.9375757E2,0E0,6.736893E2,4.0711642E2,0E0,4.4647217E0,1.5511627E0,0E0,0E0,0E0,0E0],"parents":[2147483647,0,0,2,2,3,3,5,5,6,6],"right_children":[2,-1,4,6,-1,8,10,-1,-1,-1,-1],"split_conditions":[5.919817E1,5.660763E-1,6.0801376E1,9.3934425E1,5.6604856E-1,5.9204784E1,9.44245E1,2.4300908E-4,-3.710338E-1,2.3364049E-1,5.6965166E-1],"split_indices":[1,0,1,2,0,1,2,0,0,0,0],"split_type":[0,0,0,0,0,0,0,0,0,0,0],"sum_hessian":[7.187492E2,1.0025415E2,6.1849506E2,5.197362E2,9.875885E1,4.7302716E2,4.6709076E1,2.9318464E0,4.700953E2,3.2471552E0,4.346192E1],"tree_param":{"num_deleted":"0","num_feature":"9","num_nodes":"11","size_leaf_vector":"1"}},{"base_weights":[-1.5766014E-1,4.4928688E-1,-4.5748082E-1,-8.805886E-1,4.4924912E-1,-1.1516095E0,1.4448739E0,1.8862374E-4,-3.4823507E-1,1.8331902E-1,4.4859675E-1],"categories":[],"categories_nodes":[],"categories_segments":[],"categories_sizes":[],"default_left":[0,0,0,0,0,0,0,0,0,0,0],"id":2,"left_children":[1,-1,3,5,-1,7,9,-1,-1,-1,-1],"loss_changes":[2.9493564E2,0E0,4.1717267E2,2.6254102E2,0E0,3.9253235E0,9.22348E-1,0E0,0E0,0E0,0E0],"parents":[2147483647,0,0,2,2,3,3,5,5,6,6],"right_children":[2,-1,4,6,-1,8,10,-1,-1,-1,-1],"split_conditions":[5.919817E1,4.4928688E-1,6.0801376E1,9.3934425E1,4.4924912E-1,5.9204784E1,9.44245E1,1.8862374E-4,-3.4823507E-1,1.8331902E-1,4.4859675E-1],"split_indices":[1,0,1,2,0,1,2,0,0,0,0],"split_type":[0,0,0,0,0,0,0,0,0,0,0],"sum_hessian":[5.919026E2,9.015729E1,5.0174533E2,4.1292685E2,8.881848E1,3.7027762E2,4.2649223E1,2.9321792E0,3.6734546E2,3.1813126E0,3.946791E1],"tree_param":{"num_deleted":"0","num_feature":"9","num_nodes":"11","size_leaf_vector":"1"}},{"base_weights":[-1.5171744E-1,3.931794E-1,-4.310195E-1,-8.32866E-1,3.9312848E-1,-1.0988168E0,1.2465737E0,1.4641606E-4,-3.3305606E-1,1.4593658E-1,3.903018E-1],"categories":[],"categories_nodes":[],"categories_segments":[],"categories_sizes":[],"default_left":[0,0,0,0,0,0,0,0,0,0,0],"id":3,"left_children":[1,-1,3,5,-1,7,9,-1,-1,-1,-1],"loss_changes":[1.9293123E2,0E0,2.7835852E2,1.7974232E2,0E0,3.581482E0,8.9972687E-1,0E0,0E0,0E0,0E0],"parents":[2147483647,0,0,2,2,3,3,5,5,6,6],"right_children":[2,-1,4,6,-1,8,10,-1,-1,-1,-1],"split_conditions":[5.919817E1,3.931794E-1,6.0801376E1,9.3934425E1,3.9312848E-1,5.9204784E1,9.44245E1,1.4641606E-4,-3.3305606E-1,1.4593658E-1,3.903018E-1],"split_indices":[1,0,1,2,0,1,2,0,0,0,0],"split_type":[0,0,0,0,0,0,0,0,0,0,0],"sum_hessian":[4.699923E2,7.478022E1,3.952121E2,3.2153766E2,7.367444E1,2.8549564E2,3.6042004E1,2.9324372E0,2.825632E2,3.0725355E0,3.2969467E1],"tree_param":{"num_deleted":"0","num_feature":"9","num_nodes":"11","size_leaf_vector":"1"}},{"base_weights":[-1.4571506E-1,3.6039618E-1,-4.111618E-1,-7.9737854E-1,3.6032885E-1,-1.0602927E0,1.121207E0,1.1364574E-4,-3.2240534E-1,1.16895825E-1,3.557032E-1],"categories":[],"categories_nodes":[],"categories_segments":[],"categories_sizes":[],"default_left":[0,0,0,0,0,0,0,0,0,0,0],"id":4,"left_children":[1,-1,3,5,-1,7,9,-1,-1,-1,-1],"loss_changes":[1.3171918E2,0E0,1.923237E2,1.2655536E2,0E0,3.344864E0,9.73629E-1,0E0,0E0,0E0,0E0],"parents":[2147483647,0,0,2,2,3,3,5,5,6,6],"right_children":[2,-1,4,6,-1,8,10,-1,-1,-1,-1],"split_conditions":[5.919817E1,3.6039618E-1,6.0801376E1,9.3934425E1,3.6032885E-1,5.9204784E1,9.44245E1,1.1364574E-4,-3.2240534E-1,1.16895825E-1,3.557032E-1],"split_indices":[1,0,1,2,0,1,2,0,0,0,0],"split_type":[0,0,0,0,0,0,0,0,0,0,0],"sum_hessian":[3.6599567E2,5.9669792E1,3.0632587E2,2.4753438E2,5.879149E1,2.18095E2,2.9439379E1,2.932638E0,2.1516235E2,2.9547925E0,2.6484587E1],"tree_param":{"num_deleted":"0","num_feature":"9","num_nodes":"11","size_leaf_vector":"1"}},{"base_weights":[-1.3979475E-1,3.390543E-1,-3.9497402E-1,-7.739154E-1,3.3481985E-1,-1.035932E0,1.0285832E0,8.824542E-5,-3.1637317E-1,9.381039E-2,3.323888E-1],"categories":[],"categories_nodes":[],"categories_segments":[],"categories_sizes":[],"default_left":[0,0,0,0,0,0,0,0,0,0,0],"id":5,"left_children":[1,-1,3,5,-1,7,9,-1,-1,-1,-1],"loss_changes":[9.211272E1,0E0,1.3615279E2,9.055918E1,0E0,3.2064056E0,1.0486755E0,0E0,0E0,0E0,0E0],"parents":[2147483647,0,0,2,2,3,3,5,5,6,6],"right_children":[2,-1,4,6,-1,8,10,-1,-1,-1,-1],"split_conditions":[5.919817E1,3.390543E-1,6.07905E1,9.3934425E1,3.3481985E-1,5.9204784E1,9.44245E1,8.824542E-5,-3.1637317E-1,9.381039E-2,3.323888E-1],"split_indices":[1,0,1,2,0,1,2,0,0,0,0],"split_type":[0,0,0,0,0,0,0,0,0,0,0],"sum_hessian":[2.8185834E2,4.6585037E1,2.3527328E2,1.8849101E2,4.6782288E1,1.6494011E2,2.35509E1,2.9327936E0,1.6200731E2,2.843767E0,2.0707132E1],"tree_param":{"num_deleted":"0","num_feature":"9","num_nodes":"11","size_leaf_vector":"1"}},{"base_weights":[-1.3405508E-1,3.2398415E-1,-3.805031E-1,-7.4367887E-1,3.2403317E-1,-1.0045525E0,9.532475E-1,6.849001E-5,-3.0850416E-1,8.4260136E-2,3.1956372E-1],"categories":[],"categories_nodes":[],"categories_segments":[],"categories_sizes":[],"default_left":[0,0,0,0,0,0,0,0,0,0,0],"id":6,"left_children":[1,-1,3,5,-1,7,9,-1,-1,-1,-1],"loss_changes":[6.536883E1,0E0,9.693082E1,6.546627E1,0E0,3.0316162E0,1.2012291E0,0E0,0E0,0E0,0E0],"parents":[2147483647,0,0,2,2,3,3,5,5,6,6],"right_children":[2,-1,4,6,-1,8,10,-1,-1,-1,-1],"split_conditions":[5.919817E1,3.2398415E-1,6.0801376E1,9.3934425E1,3.2403317E-1,5.9204784E1,9.430667E1,6.849001E-5,-3.0850416E-1,8.4260136E-2,3.1956372E-1],"split_indices":[1,0,1,2,0,1,7,0,0,0,0],"split_type":[0,0,0,0,0,0,0,0,0,0,0],"sum_hessian":[2.161137E2,3.5898033E1,1.8021565E2,1.4472195E2,3.5493694E1,1.2579164E2,1.8930315E1,2.9329143E0,1.2285873E2,3.2031343E0,1.5727181E1],"tree_param":{"num_deleted":"0","num_feature":"9","num_nodes":"11","size_leaf_vector":"1"}},{"base_weights":[-1.2726037E-1,3.1248996E-1,-3.661802E-1,-7.260044E-1,1.0197453E0,-9.9016094E-1,8.7945545E-1,1.0859199E-1,3.1272882E-1,5.3187152E-5,-3.064633E-1,4.4612072E-2,3.0192098E-1],"categories":[],"categories_nodes":[],"categories_segments":[],"categories_sizes":[],"default_left":[0,0,0,0,0,0,0,0,0,0,0,0,0],"id":7,"left_children":[1,-1,3,5,7,9,11,-1,-1,-1,-1,-1,-1],"loss_changes":[4.6768536E1,0E0,6.9884285E1,4.7799774E1,5.5280685E-2,2.9681168E0,1.3498526E0,0E0,0E0,0E0,0E0,0E0,0E0],"parents":[2147483647,0,0,2,2,3,3,4,4,5,5,6,6],"right_children":[2,-1,4,6,8,10,12,-1,-1,-1,-1,-1,-1],"split_conditions":[5.919817E1,3.1248996E-1,6.07905E1,9.3934425E1,6.0794525E1,5.9204784E1,9.44245E1,1.0859199E-1,3.1272882E-1,5.3187152E-5,-3.064633E-1,4.4612072E-2,3.0192098E-1],"split_indices":[1,0,1,2,5,1,2,0,0,0,0,0,0],"split_type":[0,0,0,0,0,0,0,0,0,0,0,0,0],"sum_hessian":[1.651002E2,2.7448952E1,1.3765126E2,1.09657364E2,2.7993895E1,9.449307E1,1.5164291E1,1.4985068E0,2.6495388E1,2.9330082E0,9.156007E1,2.5658586E0,1.2598433E1],"tree_param":{"num_deleted":"0","num_feature":"9","num_nodes":"13","size_leaf_vector":"1"}},{"base_weights":[-1.1930677E-1,3.029715E-1,-3.5031828E-1,-6.931324E-1,3.0319864E-1,-9.5629567E-1,8.1377786E-1,4.127685E-5,-2.9882985E-1,4.0859602E-2,2.9327756E-1],"categories":[],"categories_nodes":[],"categories_segments":[],"categories_sizes":[],"default_left":[0,0,0,0,0,0,0,0,0,0,0],"id":8,"left_children":[1,-1,3,5,-1,7,9,-1,-1,-1,-1],"loss_changes":[3.359782E1,0E0,5.0407524E1,3.4761936E1,0E0,2.7950134E0,1.3409958E0,0E0,0E0,0E0,0E0],"parents":[2147483647,0,0,2,2,3,3,5,5,6,6],"right_children":[2,-1,4,6,-1,8,10,-1,-1,-1,-1],"split_conditions":[5.919817E1,3.029715E-1,6.0801376E1,9.3934425E1,3.0319864E-1,5.9204784E1,9.430667E1,4.127685E-5,-2.9882985E-1,4.0859602E-2,2.9327756E-1],"split_indices":[1,0,1,2,0,1,7,0,0,0,0],"split_type":[0,0,0,0,0,0,0,0,0,0,0],"sum_hessian":[1.2643969E2,2.0901075E1,1.0553861E2,8.4695564E1,2.0843052E1,7.2414635E1,1.2280929E1,2.9330807E0,6.948155E1,2.7475863E0,9.533342E0],"tree_param":{"num_deleted":"0","num_feature":"9","num_nodes":"11","size_leaf_vector":"1"}},{"base_weights":[-1.1027288E-1,-3.3963576E-1,9.5400214E-1,2.943776E-1,-6.7558134E-1,8.015679E-2,2.9497817E-1,-9.455638E-1,7.427616E-1,3.2044903E-5,-2.9953414E-1,1.3500283E-2,2.7855748E-1],"categories":[],"categories_nodes":[],"categories_segments":[],"categories_sizes":[],"default_left":[0,0,0,0,0,0,0,0,0,0,0,0,0],"id":9,"left_children":[1,3,5,-1,7,-1,-1,9,11,-1,-1,-1,-1],"loss_changes":[2.4227041E1,3.673835E1,9.143829E-2,0E0,2.5747805E1,0E0,0E0,2.7699814E0,1.3864918E0,0E0,0E0,0E0,0E0],"parents":[2147483647,0,0,1,1,2,2,4,4,7,7,8,8],"right_children":[2,4,6,-1,8,-1,-1,10,12,-1,-1,-1,-1],"split_conditions":[6.07905E1,5.919817E1,6.0794525E1,2.943776E-1,9.3934425E1,8.015679E-2,2.9497817E-1,5.9204784E1,9.44245E1,3.2044903E-5,-2.9953414E-1,1.3500283E-2,2.7855748E-1],"split_indices":[1,1,5,0,2,0,0,1,2,0,0,0,0],"split_type":[0,0,0,0,0,0,0,0,0,0,0,0,0],"sum_hessian":[9.6921005E1,8.0297E1,1.6624004E1,1.5891763E1,6.4405235E1,1.0932434E0,1.5530762E1,5.4386135E1,1.0019102E1,2.9331374E0,5.1452995E1,2.3677285E0,7.651374E0],"tree_param":{"num_deleted":"0","num_feature":"9","num_nodes":"13","size_leaf_vector":"1"}},{"base_weights":[-9.960904E-2,-3.1644157E-1,2.86463E-1,2.85963E-1,-6.323926E-1,-8.9935565E-1,6.770526E-1,2.486595E-5,-2.894146E-1,1.2917902E-2,2.7000636E-1],"categories":[],"categories_nodes":[],"categories_segments":[],"categories_sizes":[],"default_left":[0,0,0,0,0,0,0,0,0,0,0],"id":10,"left_children":[1,3,-1,-1,5,7,9,-1,-1,-1,-1],"loss_changes":[1.7655342E1,2.6156622E1,0E0,0E0,1.8650246E1,2.5455017E0,1.2773867E0,0E0,0E0,0E0,0E0],"parents":[2147483647,0,0,1,1,4,4,5,5,6,6],"right_children":[2,4,-1,-1,6,8,10,-1,-1,-1,-1],"split_conditions":[6.0801376E1,5.919817E1,2.86463E-1,2.85963E-1,9.3934425E1,5.9204784E1,9.430667E1,2.486595E-5,-2.894146E-1,1.2917902E-2,2.7000636E-1],"split_indices":[1,1,0,0,2,1,7,0,0,0,0],"split_type":[0,0,0,0,0,0,0,0,0,0,0],"sum_hessian":[7.489514E1,6.2701767E1,1.2193375E1,1.2092203E1,5.0609562E1,4.229903E1,8.310534E0,2.933181E0,3.936585E1,2.4727085E0,5.8378253E0],"tree_param":{"num_deleted":"0","num_feature":"9","num_nodes":"11","size_leaf_vector":"1"}},{"base_weights":[-8.710043E-2,-3.049996E-1,8.9333236E-1,2.7718008E-1,-6.121228E-1,8.306199E-2,2.845937E-1,-8.8929594E-1,6.066774E-1,1.9273843E-5,-2.928738E-1,-4.4042263E-2,2.3892562E-1],"categories":[],"categories_nodes":[],"categories_segments":[],"categories_sizes":[],"default_left":[0,0,0,0,0,0,0,0,0,0,0,0,0],"id":11,"left_children":[1,3,5,-1,7,-1,-1,9,11,-1,-1,-1,-1],"loss_changes":[1.2912988E1,1.9118385E1,1.1288738E-1,0E0,1.4028091E1,0E0,0E0,2.5470085E0,1.2595694E0,0E0,0E0,0E0,0E0],"parents":[2147483647,0,0,1,1,2,2,4,4,7,7,8,8],"right_children":[2,4,6,-1,8,-1,-1,10,12,-1,-1,-1,-1],"split_conditions":[6.07905E1,5.919817E1,6.0808685E1,2.7718008E-1,9.3934425E1,8.306199E-2,2.845937E-1,5.9204784E1,6.283321E-1,1.9273843E-5,-2.928738E-1,-4.4042263E-2,2.3892562E-1],"split_indices":[1,1,5,0,2,0,0,1,8,0,0,0,0],"split_type":[0,0,0,0,0,0,0,0,0,0,0,0,0],"sum_hessian":[5.8168644E1,4.815517E1,1.00134735E1,9.226718E0,3.892845E1,1.3189956E0,8.694478E0,3.1936068E1,6.9923825E0,2.9332154E0,2.9002853E1,1.4521201E0,5.540262E0],"tree_param":{"num_deleted":"0","num_feature":"9","num_nodes":"13","size_leaf_vector":"1"}},{"base_weights":[-7.369061E-2,-2.7330378E-1,2.687253E-1,2.6763564E-1,-5.5383927E-1,-7.778209E-1,2.468632E-1,-2.62514E-1,4.4801693E-2],"categories":[],"categories_nodes":[],"categories_segments":[],"categories_sizes":[],"default_left":[0,0,0,0,0,0,0,0,0],"id":12,"left_children":[1,3,-1,-1,5,7,-1,-1,-1],"loss_changes":[9.315863E0,1.3453407E1,0E0,0E0,1.0681646E1,2.7017574E0,0E0,0E0,0E0],"parents":[2147483647,0,0,1,1,4,4,5,5],"right_children":[2,4,-1,-1,6,8,-1,-1,-1],"split_conditions":[6.0801376E1,5.919817E1,2.687253E-1,2.6763564E-1,9.44245E1,3.5179752E2,2.468632E-1,-2.62514E-1,4.4801693E-2],"split_indices":[1,1,0,0,2,0,0,0,0],"split_type":[0,0,0,0,0,0,0,0,0],"sum_hessian":[4.5875595E1,3.8637924E1,7.237672E0,7.0733213E0,3.1564604E1,2.7521996E1,4.0426087E0,2.4960722E1,2.5612736E0],"tree_param":{"num_deleted":"0","num_feature":"9","num_nodes":"9","size_leaf_vector":"1"}},{"base_weights":[-5.0904308E-2,-2.4932326E-1,8.2746017E-1,6.599125E-1,-5.892452E-1,5.9434682E-2,2.6899636E-1,2.5708747E-1,1.3435198E-1,-9.0225977E-1,6.719098E-1,-1.9988462E-1,2.1294829E-1,-2.850973E-1,-4.04338E-2,2.4489442E-1,1.02259535E-2],"categories":[],"categories_nodes":[],"categories_segments":[],"categories_sizes":[],"default_left":[0,0,0,0,0,0,0,0,0,0,0,0,0,0,0,0,0],"id":13,"left_children":[1,3,5,7,9,-1,-1,-1,11,13,15,-1,-1,-1,-1,-1,-1],"loss_changes":[6.844282E0,1.0228758E1,1.3806868E-1,8.3091116E-1,9.962815E0,0E0,0E0,0E0,2.1671088E0,5.881367E-1,4.5905542E-1,0E0,0E0,0E0,0E0,0E0,0E0],"parents":[2147483647,0,0,1,1,2,2,3,3,4,4,8,8,9,9,10,10],"right_children":[2,4,6,8,10,-1,-1,-1,12,14,16,-1,-1,-1,-1,-1,-1],"split_conditions":[6.07905E1,5.9204784E1,6.0808685E1,5.919817E1,9.3846085E1,5.9434682E-2,2.6899636E-1,2.5708747E-1,2.3173552E-2,9.3934425E1,2.950759E-1,-1.9988462E-1,2.1294829E-1,-2.850973E-1,-4.04338E-2,2.4489442E-1,1.02259535E-2],"split_indices":[1,1,5,1,7,0,0,0,6,2,4,0,0,0,0,0,0],"split_type":[0,0,0,0,0,0,0,0,0,0,0,0,0,0,0,0,0],"sum_hessian":[3.7087086E1,3.0837233E1,6.2498546E0,8.13529E0,2.2701942E1,1.0017543E0,5.2481003E0,5.4582844E0,2.6770058E0,1.8415781E1,4.2861605E0,1.0535098E0,1.6234959E0,1.710624E1,1.3095415E0,3.266722E0,1.0194387E0],"tree_param":{"num_deleted":"0","num_feature":"9","num_nodes":"17","size_leaf_vector":"1"}},{"base_weights":[-3.5479408E-2,-2.0859541E-1,2.4754415E-1,5.713683E-1,-5.2317375E-1,2.45333E-1,9.5959194E-2,-8.743137E-1,4.4680512E-1,-1.7672405E-1,1.7197108E-1,-3.1920786E-3,-2.8118694E-1,-7.426989E-2,2.0365785E-1],"categories":[],"categories_nodes":[],"categories_segments":[],"categories_sizes":[],"default_left":[0,0,0,0,0,0,0,0,0,0,0,0,0,0,0],"id":14,"left_children":[1,3,-1,5,7,-1,9,11,13,-1,-1,-1,-1,-1,-1],"loss_changes":[4.8081636E0,6.8510227E0,0E0,8.7659645E-1,7.0497384E0,0E0,1.6180713E0,7.8918266E-1,1.1120213E0,0E0,0E0,0E0,0E0,0E0,0E0],"parents":[2147483647,0,0,1,1,3,3,4,4,6,6,7,7,8,8],"right_children":[2,4,-1,6,8,-1,10,12,14,-1,-1,-1,-1,-1,-1],"split_conditions":[6.0801376E1,5.9238102E1,2.4754415E-1,5.919817E1,9.3934425E1,2.45333E-1,2.4768759E-2,3.3207973E1,6.283321E-1,-1.7672405E-1,1.7197108E-1,-3.1920786E-3,-2.8118694E-1,-7.426989E-2,2.0365785E-1],"split_indices":[1,5,0,1,2,0,6,3,8,0,0,0,0,0,0],"split_type":[0,0,0,0,0,0,0,0,0,0,0,0,0,0,0],"sum_hessian":[3.0116827E1,2.5704052E1,4.4127755E0,7.1528983E0,1.8551153E1,4.2367854E0,2.9161131E0,1.3692858E1,4.858296E0,1.1012429E0,1.8148702E0,1.0100237E0,1.2682834E1,1.200179E0,3.658117E0],"tree_param":{"num_deleted":"0","num_feature":"9","num_nodes":"15","size_leaf_vector":"1"}},{"base_weights":[-2.3778165E-2,-2.125876E-1,2.2476953E-1,5.12276E-1,-5.313725E-1,1.9217004E-1,2.8578928E-1,-8.1500673E-1,2.1504427E-1,2.1547426E-1,-1.5340061E-1,-2.687841E-1,1.662935E-2],"categories":[],"categories_nodes":[],"categories_segments":[],"categories_sizes":[],"default_left":[0,0,0,0,0,0,0,0,0,0,0,0,0],"id":15,"left_children":[1,3,-1,5,7,9,-1,11,-1,-1,-1,-1,-1],"loss_changes":[3.9185424E0,5.235645E0,0E0,8.135463E-1,6.0396223E0,2.3461003E0,0E0,9.672651E-1,0E0,0E0,0E0,0E0,0E0],"parents":[2147483647,0,0,1,1,3,3,4,4,5,5,7,7],"right_children":[2,4,-1,6,8,10,-1,12,-1,-1,-1,-1,-1],"split_conditions":[6.0774773E1,5.9204784E1,2.2476953E-1,3.2783237E2,9.44245E1,5.919817E1,2.8578928E-1,9.3846085E1,2.1504427E-1,2.1547426E-1,-1.5340061E-1,-2.687841E-1,1.662935E-2],"split_indices":[5,1,0,0,2,1,0,7,0,0,0,0,0],"split_type":[0,0,0,0,0,0,0,0,0,0,0,0,0],"sum_hessian":[2.4756935E1,2.0479708E1,4.277228E0,6.070176E0,1.4409532E1,4.3467813E0,1.7233951E0,1.2024229E1,2.385303E0,2.4750197E0,1.8717614E0,1.0974433E1,1.0497959E0],"tree_param":{"num_deleted":"0","num_feature":"9","num_nodes":"13","size_leaf_vector":"1"}},{"base_weights":[-1.2092489E-3,-1.5448742E-1,2.2659527E-1,6.136761E-1,-3.788412E-1,1.7783816E-1,2.8282005E-1,-5.967714E-1,1.9873403E-1,1.6578303E-1,-9.643057E-2,-2.1616283E-1,7.639765E-2],"categories":[],"categories_nodes":[],"categories_segments":[],"categories_sizes":[],"default_left":[0,0,0,0,0,0,0,0,0,0,0,0,0],"id":16,"left_children":[1,3,-1,5,7,9,-1,11,-1,-1,-1,-1,-1],"loss_changes":[2.6405702E0,3.4946501E0,0E0,5.007236E-1,3.8601134E0,7.833919E-1,0E0,1.5694671E0,0E0,0E0,0E0,0E0,0E0],"parents":[2147483647,0,0,1,1,3,3,4,4,5,5,7,7],"right_children":[2,4,-1,6,8,10,-1,12,-1,-1,-1,-1,-1],"split_conditions":[6.0808685E1,5.9193714E1,2.2659527E-1,5.9673603E1,9.430667E1,5.9147697E1,2.8282005E-1,3.5523956E2,1.9873403E-1,1.6578303E-1,-9.643057E-2,-2.1616283E-1,7.639765E-2],"split_indices":[5,5,0,2,7,5,0,0,0,0,0,0,0],"split_type":[0,0,0,0,0,0,0,0,0,0,0,0,0],"sum_hessian":[2.0765299E1,1.7928616E1,2.8366823E0,3.6604202E0,1.4268196E1,2.2374094E0,1.423011E0,1.2151838E1,2.1163568E0,1.2170333E0,1.0203761E0,1.0743759E1,1.4080791E0],"tree_param":{"num_deleted":"0","num_feature":"9","num_nodes":"13","size_leaf_vector":"1"}},{"base_weights":[3.1078903E-2,-1.07126E-1,2.1379925E-1,4.4362953E-1,-3.7044567E-1,6.030127E-1,-1.6142959E-2,-7.659531E-1,3.7463862E-1,6.5905154E-2,2.7238E-1,-2.6815182E-3,-2.609293E-1,-7.672685E-2,1.90544E-1],"categories":[],"categories_nodes":[],"categories_segments":[],"categories_sizes":[],"default_left":[0,0,0,0,0,0,0,0,0,0,0,0,0,0,0],"id":17,"left_children":[1,3,-1,5,7,9,-1,11,13,-1,-1,-1,-1,-1,-1],"loss_changes":[1.9102345E0,2.6378255E0,0E0,5.0591564E-1,3.847879E0,3.3875525E-1,0E0,6.383724E-1,9.608394E-1,0E0,0E0,0E0,0E0,0E0,0E0],"parents":[2147483647,0,0,1,1,3,3,4,4,5,5,7,7,8,8],"right_children":[2,4,-1,6,8,10,-1,12,14,-1,-1,-1,-1,-1,-1],"split_conditions":[6.0801376E1,5.9238102E1,2.1379925E-1,1.1687917E0,9.3934425E1,1.4439293E2,-1.6142959E-2,1.7080683E-2,2.1223318E-2,6.5905154E-2,2.7238E-1,-2.6815182E-3,-2.609293E-1,-7.672685E-2,1.90544E-1],"split_indices":[1,5,0,8,2,0,0,6,6,0,0,0,0,0,0],"split_type":[0,0,0,0,0,0,0,0,0,0,0,0,0,0,0],"sum_hessian":[1.8468369E1,1.6055605E1,2.4127638E0,4.971834E0,1.1083772E1,3.6046462E0,1.3671877E0,7.2221065E0,3.861665E0,2.3592253E0,1.2454209E0,1.0019265E0,6.2201796E0,1.1345196E0,2.7271457E0],"tree_param":{"num_deleted":"0","num_feature":"9","num_nodes":"15","size_leaf_vector":"1"}},{"base_weights":[4.185814E-2,-1.0915899E-1,1.9419073E-1,2.0562197E-1,-3.0021432E-1,-4.909852E-1,1.8642236E-1,-1.9796367E-1,8.051844E-2],"categories":[],"categories_nodes":[],"categories_segments":[],"categories_sizes":[],"default_left":[0,0,0,0,0,0,0,0,0],"id":18,"left_children":[1,3,-1,-1,5,7,-1,-1,-1],"loss_changes":[1.6440381E0,2.4264538E0,0E0,0E0,2.5007663E0,1.5757449E0,0E0,0E0,0E0],"parents":[2147483647,0,0,1,1,4,4,5,5],"right_children":[2,4,-1,-1,6,8,-1,-1,-1],"split_conditions":[6.07905E1,5.919817E1,1.9419073E-1,2.0562197E-1,9.44245E1,3.518523E2,1.8642236E-1,-1.9796367E-1,8.051844E-2],"split_indices":[1,1,0,0,2,3,0,0,0],"split_type":[0,0,0,0,0,0,0,0,0],"sum_hessian":[1.6208103E1,1.362844E1,2.5796642E0,2.1402092E0,1.1488231E1,9.905172E0,1.583058E0,8.210177E0,1.6949955E0],"tree_param":{"num_deleted":"0","num_feature":"9","num_nodes":"9","size_leaf_vector":"1"}},{"base_weights":[6.283531E-2,-2.3285033E-1,3.2087165E-1,1.6419794E-1,-4.5699665E-1,5.0331193E-1,-6.49661E-2,-7.3398346E-1,1.5467548E-1,-2.4763366E-2,6.9848406E-1,-2.4960665E-1,-4.319695E-2,2.675209E-1,9.377714E-2],"categories":[],"categories_nodes":[],"categories_segments":[],"categories_sizes":[],"default_left":[0,0,0,0,0,0,0,0,0,0,0,0,0,0,0],"id":19,"left_children":[1,3,5,-1,7,9,-1,11,-1,-1,13,-1,-1,-1,-1],"loss_changes":[1.2572609E0,1.6145129E0,9.61717E-1,0E0,2.1579833E0,8.34465E-1,0E0,2.0146036E-1,0E0,0E0,1.0916662E-1,0E0,0E0,0E0,0E0],"parents":[2147483647,0,0,1,1,2,2,4,4,5,5,7,7,10,10],"right_children":[2,4,6,-1,8,10,-1,12,-1,-1,14,-1,-1,-1,-1],"split_conditions":[6.4421425E1,5.919817E1,1.154081E0,1.6419794E-1,6.0801376E1,6.721844E-1,-6.49661E-2,3.38646E2,1.5467548E-1,-2.4763366E-2,6.6809425E1,-2.4960665E-1,-4.319695E-2,2.675209E-1,9.377714E-2],"split_indices":[7,1,8,0,1,8,0,0,0,0,0,0,0,0,0],"split_type":[0,0,0,0,0,0,0,0,0,0,0,0,0,0,0],"sum_hessian":[1.4499115E1,6.802122E0,7.6969924E0,1.1963189E0,5.6058035E0,5.7936816E0,1.9033109E0,4.554132E0,1.0516714E0,1.5919938E0,4.201688E0,3.5534384E0,1.0006936E0,1.9262189E0,2.2754688E0],"tree_param":{"num_deleted":"0","num_feature":"9","num_nodes":"15","size_leaf_vector":"1"}},{"base_weights":[6.395819E-2,5.360041E-1,-7.5592555E-2,2.99335E-2,2.370964E-1,-3.392582E-1,4.3986934E-1,-5.472479E-1,1.6126715E-1,1.7539985E-2,1.9661242E-1,-2.168632E-1,5.2144896E-2],"categories":[],"categories_nodes":[],"categories_segments":[],"categories_sizes":[],"default_left":[0,0,0,0,0,0,0,0,0,0,0,0,0],"id":20,"left_children":[1,3,5,-1,-1,7,9,11,-1,-1,-1,-1,-1],"loss_changes":[9.884275E-1,2.9910922E-1,1.777794E0,0E0,0E0,1.8428853E0,3.3077765E-1,1.0576572E0,0E0,0E0,0E0,0E0,0E0],"parents":[2147483647,0,0,1,1,2,2,5,5,6,6,7,7],"right_children":[2,4,6,-1,-1,8,10,12,-1,-1,-1,-1,-1],"split_conditions":[5.9193714E1,5.9935154E1,6.0558605E1,2.99335E-2,2.370964E-1,9.44245E1,6.764748E1,3.5523956E2,1.6126715E-1,1.7539985E-2,1.9661242E-1,-2.168632E-1,5.2144896E-2],"split_indices":[5,7,1,0,0,2,2,0,0,0,0,0,0],"split_type":[0,0,0,0,0,0,0,0,0,0,0,0,0],"sum_hessian":[1.3389657E1,2.406951E0,1.0982706E1,1.3992242E0,1.0077269E0,7.4921885E0,3.4905179E0,6.359514E0,1.1326742E0,1.7191881E0,1.7713298E0,5.1118965E0,1.2476178E0],"tree_param":{"num_deleted":"0","num_feature":"9","num_nodes":"13","size_leaf_vector":"1"}},{"base_weights":[8.1170954E-2,1.7749052E-1,-2.8833205E-2,-3.740602E-1,2.2130157E-1,-6.1896986E-1,7.124959E-2,3.962812E-1,-8.131437E-2,-2.1711911E-1,-4.334237E-2,-3.0786606E-2,1.7289093E-1],"categories":[],"categories_nodes":[],"categories_segments":[],"categories_sizes":[],"default_left":[0,0,0,0,0,0,0,0,0,0,0,0,0],"id":21,"left_children":[1,-1,3,5,7,9,-1,11,-1,-1,-1,-1,-1],"loss_changes":[7.734526E-1,0E0,1.1220901E0,9.6003985E-1,7.627835E-1,1.0189664E-1,0E0,5.997039E-1,0E0,0E0,0E0,0E0,0E0],"parents":[2147483647,0,0,2,2,3,3,4,4,5,5,7,7],"right_children":[2,-1,4,6,8,10,-1,12,-1,-1,-1,-1,-1],"split_conditions":[5.919817E1,1.7749052E-1,6.5893E1,6.07905E1,1.154081E0,3.3131192E2,7.124959E-2,6.838042E-1,-8.131437E-2,-2.1711911E-1,-4.334237E-2,-3.0786606E-2,1.7289093E-1],"split_indices":[1,0,7,1,8,0,0,8,0,0,0,0,0],"split_type":[0,0,0,0,0,0,0,0,0,0,0,0,0],"sum_hessian":[1.2470188E1,1.4346288E0,1.103556E1,4.4283185E0,6.6072407E0,3.1533751E0,1.2749437E0,5.0187225E0,1.5885181E0,2.1528084E0,1.0005667E0,1.4447539E0,3.5739686E0],"tree_param":{"num_deleted":"0","num_feature":"9","num_nodes":"13","size_leaf_vector":"1"}},{"base_weights":[6.1765328E-2,-4.8637643E-2,1.5860447E-1,3.7552637E-1,-2.7390417E-1,-2.1586457E-2,1.7233595E-1,-2.0741566E-1,2.9445904E-1,-5.699836E-2,1.5639263E-1],"categories":[],"categories_nodes":[],"categories_segments":[],"categories_sizes":[],"default_left":[0,0,0,0,0,0,0,0,0,0,0],"id":22,"left_children":[1,3,-1,5,7,-1,-1,-1,9,-1,-1],"loss_changes":[6.86564E-1,1.1810461E0,0E0,4.2729253E-1,2.0895414E0,0E0,0E0,0E0,5.460218E-1,0E0,0E0],"parents":[2147483647,0,0,1,1,3,3,4,4,8,8],"right_children":[2,4,-1,6,8,-1,-1,-1,10,-1,-1],"split_conditions":[6.0808685E1,5.9204784E1,1.5860447E-1,2.3173552E-2,9.3934425E1,-2.1586457E-2,1.7233595E-1,-2.0741566E-1,6.908069E-1,-5.699836E-2,1.5639263E-1],"split_indices":[5,1,0,6,2,0,0,0,8,0,0],"split_type":[0,0,0,0,0,0,0,0,0,0,0],"sum_hessian":[1.1819861E1,1.0284022E1,1.5358387E0,3.3358245E0,6.948198E0,1.2229999E0,2.1128247E0,3.8810153E0,3.0671825E0,1.0300034E0,2.0371792E0],"tree_param":{"num_deleted":"0","num_feature":"9","num_nodes":"11","size_leaf_vector":"1"}},{"base_weights":[6.016435E-2,1.7004327E-1,-4.452523E-2,-1.5905713E-1,1.5533437E-1,-3.296914E-1,1.1718117E-1,5.415709E-2,-1.9606587E-1],"categories":[],"categories_nodes":[],"categories_segments":[],"categories_sizes":[],"default_left":[0,0,0,0,0,0,0,0,0],"id":23,"left_children":[1,-1,3,5,-1,7,-1,-1,-1],"loss_changes":[6.570526E-1,0E0,7.778471E-1,1.042003E0,0E0,1.4353474E0,0E0,0E0,0E0],"parents":[2147483647,0,0,2,2,3,3,5,5],"right_children":[2,-1,4,6,-1,8,-1,-1,-1],"split_conditions":[3.3425816E1,1.7004327E-1,6.0801376E1,9.3846085E1,1.5533437E-1,5.9212715E1,1.1718117E-1,5.415709E-2,-1.9606587E-1],"split_indices":[3,0,1,7,0,1,0,0,0],"split_type":[0,0,0,0,0,0,0,0,0],"sum_hessian":[1.0911913E1,1.1127139E0,9.799199E0,8.736801E0,1.0623978E0,6.9724855E0,1.7643154E0,2.8791811E0,4.093304E0],"tree_param":{"num_deleted":"0","num_feature":"9","num_nodes":"9","size_leaf_vector":"1"}},{"base_weights":[6.922202E-2,-8.621902E-2,3.3925822E-1,1.539281E-1,-2.525161E-1,-7.342856E-3,1.599411E-1,-1.9687794E-1,1.0546446E-1,-1.0340987E-1,1.2250796E-1],"categories":[],"categories_nodes":[],"categories_segments":[],"categories_sizes":[],"default_left":[0,0,0,0,0,0,0,0,0,0,0],"id":24,"left_children":[1,3,5,-1,7,-1,-1,-1,9,-1,-1],"loss_changes":[4.9949226E-1,9.1765857E-1,3.1596684E-1,0E0,1.0607203E0,0E0,0E0,0E0,7.540309E-1,0E0,0E0],"parents":[2147483647,0,0,1,1,2,2,4,4,8,8],"right_children":[2,4,6,-1,8,-1,-1,-1,10,-1,-1],"split_conditions":[6.0393883E1,5.919817E1,6.785366E1,1.539281E-1,2.4601752E-2,-7.342856E-3,1.599411E-1,-1.9687794E-1,6.5893E1,-1.0340987E-1,1.2250796E-1],"split_indices":[1,1,7,0,6,0,0,0,7,0,0],"split_type":[0,0,0,0,0,0,0,0,0,0,0],"sum_hessian":[1.0202978E1,6.907516E0,3.2954624E0,1.0474046E0,5.860111E0,1.449612E0,1.8458505E0,2.3624387E0,3.4976726E0,1.3513206E0,2.1463518E0],"tree_param":{"num_deleted":"0","num_feature":"9","num_nodes":"11","size_leaf_vector":"1"}},{"base_weights":[6.247152E-2,1.3438763E-1,-2.9002659E-2,-1.4466272E-1,1.0104354E-1,-3.1320634E-1,2.1250944E-1,-1.4560421E-1,3.5534788E-2,1.4789625E-1,-4.741744E-2],"categories":[],"categories_nodes":[],"categories_segments":[],"categories_sizes":[],"default_left":[0,0,0,0,0,0,0,0,0,0,0],"id":25,"left_children":[1,-1,3,5,-1,7,9,-1,-1,-1,-1],"loss_changes":[3.9093193E-1,0E0,4.5497105E-1,5.4783165E-1,0E0,4.911239E-1,4.0623933E-1,0E0,0E0,0E0,0E0],"parents":[2147483647,0,0,2,2,3,3,5,5,6,6],"right_children":[2,-1,4,6,-1,8,10,-1,-1,-1,-1],"split_conditions":[3.3425816E1,1.3438763E-1,9.3846085E1,3.295829E2,1.0104354E-1,2.8041628E-1,5.9204784E1,-1.4560421E-1,3.5534788E-2,1.4789625E-1,-4.741744E-2],"split_indices":[3,0,7,0,0,4,1,0,0,0,0],"split_type":[0,0,0,0,0,0,0,0,0,0,0],"sum_hessian":[9.718014E0,1.1163645E0,8.601649E0,6.9946785E0,1.6069709E0,4.835826E0,2.1588523E0,3.3682199E0,1.4676063E0,1.0407577E0,1.1180946E0],"tree_param":{"num_deleted":"0","num_feature":"9","num_nodes":"11","size_leaf_vector":"1"}},{"base_weights":[6.6083364E-2,-3.4948453E-2,1.520529E-1,3.0559087E-1,-1.9433998E-1,1.3170923E-2,1.378025E-1,-4.8937568E-1,2.2360744E-1,-2.1764085E-2,-1.768121E-1,-5.0316613E-2,1.3177222E-1],"categories":[],"categories_nodes":[],"categories_segments":[],"categories_sizes":[],"default_left":[0,0,0,0,0,0,0,0,0,0,0,0,0],"id":26,"left_children":[1,3,-1,5,7,-1,-1,9,11,-1,-1,-1,-1],"loss_changes":[4.842673E-1,5.7280725E-1,0E0,1.1681166E-1,9.793008E-1,0E0,0E0,1.4268076E-1,3.7791702E-1,0E0,0E0,0E0,0E0],"parents":[2147483647,0,0,1,1,3,3,4,4,7,7,8,8],"right_children":[2,4,-1,6,8,-1,-1,10,12,-1,-1,-1,-1],"split_conditions":[6.0801376E1,5.922235E1,1.520529E-1,7.220125E1,9.3934425E1,1.3170923E-2,1.378025E-1,3.5460873E1,2.1223318E-2,-2.1764085E-2,-1.768121E-1,-5.0316613E-2,1.3177222E-1],"split_indices":[1,5,0,0,2,0,0,0,6,0,0,0,0],"split_type":[0,0,0,0,0,0,0,0,0,0,0,0,0],"sum_hessian":[9.477119E0,8.458869E0,1.0182506E0,2.404478E0,6.054391E0,1.3656512E0,1.0388267E0,3.4488738E0,2.6055171E0,1.0011581E0,2.4477158E0,1.0045879E0,1.6009294E0],"tree_param":{"num_deleted":"0","num_feature":"9","num_nodes":"13","size_leaf_vector":"1"}},{"base_weights":[6.774345E-2,-4.539042E-2,1.18930295E-1,2.5022912E-1,-2.440482E-1,-2.0225717E-2,1.16704635E-1,-1.9085158E-1,1.6969502E-1,-5.407598E-2,1.1666078E-1],"categories":[],"categories_nodes":[],"categories_segments":[],"categories_sizes":[],"default_left":[0,0,0,0,0,0,0,0,0,0,0],"id":27,"left_children":[1,3,-1,5,7,-1,-1,-1,9,-1,-1],"loss_changes":[3.835416E-1,5.4323846E-1,0E0,1.9346954E-1,9.867589E-1,0E0,0E0,0E0,3.3280164E-1,0E0,0E0],"parents":[2147483647,0,0,1,1,3,3,4,4,8,8],"right_children":[2,4,-1,6,8,-1,-1,-1,10,-1,-1],"split_conditions":[6.0774773E1,5.9204784E1,1.18930295E-1,2.3495292E-2,9.3934425E1,-2.0225717E-2,1.16704635E-1,-1.9085158E-1,9.0559924E-1,-5.407598E-2,1.1666078E-1],"split_indices":[5,1,0,6,2,0,0,0,8,0,0],"split_type":[0,0,0,0,0,0,0,0,0,0,0],"sum_hessian":[8.830222E0,7.210356E0,1.6198658E0,2.793618E0,4.4167385E0,1.0058032E0,1.7878147E0,1.9916028E0,2.4251356E0,1.0023293E0,1.4228061E0],"tree_param":{"num_deleted":"0","num_feature":"9","num_nodes":"11","size_leaf_vector":"1"}},{"base_weights":[5.677206E-2,-7.9992056E-2,2.8560856E-1,2.0288184E-1,-3.501661E-1,1.261407E-1,-7.2714053E-3,-1.518634E-2,9.5026664E-2,-1.5548317E-1,-2.7444435E-2],"categories":[],"categories_nodes":[],"categories_segments":[],"categories_sizes":[],"default_left":[0,0,0,0,0,0,0,0,0,0,0],"id":28,"left_children":[1,3,5,7,9,-1,-1,-1,-1,-1,-1],"loss_changes":[3.1588882E-1,5.7865304E-1,1.6569635E-1,1.2797797E-1,1.1627814E-1,0E0,0E0,0E0,0E0,0E0,0E0],"parents":[2147483647,0,0,1,1,2,2,3,3,4,4],"right_children":[2,4,6,8,10,-1,-1,-1,-1,-1,-1],"split_conditions":[6.0393883E1,5.925051E1,2.5060013E-2,2.3173552E-2,9.3934425E1,1.261407E-1,-7.2714053E-3,-1.518634E-2,9.5026664E-2,-1.5548317E-1,-2.7444435E-2],"split_indices":[1,5,6,6,2,0,0,0,0,0,0],"split_type":[0,0,0,0,0,0,0,0,0,0,0],"sum_hessian":[8.363388E0,5.6419296E0,2.7214584E0,2.877861E0,2.7640684E0,1.6474043E0,1.0740541E0,1.064208E0,1.8136529E0,1.06709E0,1.6969784E0],"tree_param":{"num_deleted":"0","num_feature":"9","num_nodes":"11","size_leaf_vector":"1"}},{"base_weights":[4.1299604E-2,1.524352E-1,-2.158035E-1,-7.323908E-2,3.1858313E-1,-1.16111234E-1,1.2255872E-2,-6.757576E-3,1.4890556E-1],"categories":[],"categories_nodes":[],"categories_segments":[],"categories_sizes":[],"default_left":[0,0,0,0,0,0,0,0,0],"id":29,"left_children":[1,3,5,-1,7,-1,-1,-1,-1],"loss_changes":[2.9520497E-1,5.387079E-1,1.557681E-1,0E0,3.3644074E-1,0E0,0E0,0E0,0E0],"parents":[2147483647,0,0,1,1,2,2,4,4],"right_children":[2,4,6,-1,8,-1,-1,-1,-1],"split_conditions":[1.154081E0,6.4780575E-1,1.2253156E0,-7.323908E-2,6.883399E1,-1.16111234E-1,1.2255872E-2,-6.757576E-3,1.4890556E-1],"split_indices":[8,8,8,0,2,0,0,0,0],"split_type":[0,0,0,0,0,0,0,0,0],"sum_hessian":[8.180207E0,5.9956346E0,2.184573E0,1.631701E0,4.3639336E0,1.00564E0,1.1789329E0,1.7942868E0,2.5696468E0],"tree_param":{"num_deleted":"0","num_feature":"9","num_nodes":"9","size_leaf_vector":"1"}},{"base_weights":[2.56318E-2,9.81679E-2,-5.3261336E-2,-1.8052624E-1,7.389325E-2,-3.0245218E-1,5.9998695E-2,-1.2909186E-1,2.0521075E-2],"categories":[],"categories_nodes":[],"categories_segments":[],"categories_sizes":[],"default_left":[0,0,0,0,0,0,0,0,0],"id":30,"left_children":[1,-1,3,5,-1,7,-1,-1,-1],"loss_changes":[2.3440106E-1,0E0,3.5282576E-1,3.5063037E-1,0E0,2.7287263E-1,0E0,0E0,0E0],"parents":[2147483647,0,0,2,2,3,3,5,5],"right_children":[2,-1,4,6,-1,8,-1,-1,-1],"split_conditions":[3.3425816E1,9.81679E-2,3.295829E2,9.3846085E1,7.389325E-2,2.8041628E-1,5.9998695E-2,-1.2909186E-1,2.0521075E-2],"split_indices":[3,0,0,7,0,4,0,0,0],"split_type":[0,0,0,0,0,0,0,0,0],"sum_hessian":[8.118893E0,1.0307605E0,7.088132E0,5.2536507E0,1.8344811E0,4.134158E0,1.1194927E0,2.9550774E0,1.1790808E0],"tree_param":{"num_deleted":"0","num_feature":"9","num_nodes":"9","size_leaf_vector":"1"}},{"base_weights":[3.149518E-2,-5.3045403E-2,9.813126E-2,2.0590727E-1,-1.9308382E-1,8.411536E-2,1.2881615E-2,-1.3677141E-1,1.4424966E-1,-3.7841585E-2,9.6854426E-2],"categories":[],"categories_nodes":[],"categories_segments":[],"categories_sizes":[],"default_left":[0,0,0,0,0,0,0,0,0,0,0],"id":31,"left_children":[1,3,-1,5,7,-1,-1,-1,9,-1,-1],"loss_changes":[2.4252196E-1,3.250341E-1,0E0,2.7347103E-2,5.641812E-1,0E0,0E0,0E0,1.9629508E-1,0E0,0E0],"parents":[2147483647,0,0,1,1,3,3,4,4,8,8],"right_children":[2,4,-1,6,8,-1,-1,-1,10,-1,-1],"split_conditions":[6.0808685E1,5.922235E1,9.813126E-2,2.249853E-1,9.3934425E1,8.411536E-2,1.2881615E-2,-1.3677141E-1,8.7048596E-1,-3.7841585E-2,9.6854426E-2],"split_indices":[5,5,0,4,2,0,0,0,8,0,0],"split_type":[0,0,0,0,0,0,0,0,0,0,0],"sum_hessian":[8.010081E0,6.866812E0,1.1432694E0,2.2450342E0,4.621778E0,1.0463607E0,1.1986736E0,2.4002316E0,2.2215466E0,1.0005296E0,1.2210169E0],"tree_param":{"num_deleted":"0","num_feature":"9","num_nodes":"11","size_leaf_vector":"1"}},{"base_weights":[3.535767E-2,-5.4583922E-2,8.223652E-2,1.7524941E-1,-2.2375017E-1,-9.0438435E-3,9.2270225E-2,-1.7550823E-1,1.2181668E-1,-3.4210704E-2,8.518724E-2],"categories":[],"categories_nodes":[],"categories_segments":[],"categories_sizes":[],"default_left":[0,0,0,0,0,0,0,0,0,0,0],"id":32,"left_children":[1,3,-1,5,7,-1,-1,-1,9,-1,-1],"loss_changes":[2.0222197E-1,3.1790072E-1,0E0,1.0710563E-1,6.415737E-1,0E0,0E0,0E0,1.5331864E-1,0E0,0E0],"parents":[2147483647,0,0,1,1,3,3,4,4,8,8],"right_children":[2,4,-1,6,8,-1,-1,-1,10,-1,-1],"split_conditions":[6.07905E1,5.9204784E1,8.223652E-2,7.220125E1,9.3934425E1,-9.0438435E-3,9.2270225E-2,-1.7550823E-1,8.134577E-1,-3.4210704E-2,8.518724E-2],"split_indices":[1,1,0,0,2,0,0,0,8,0,0],"split_type":[0,0,0,0,0,0,0,0,0,0,0],"sum_hessian":[7.7199497E0,6.1679096E0,1.5520403E0,2.5997996E0,3.5681098E0,1.3211557E0,1.278644E0,1.4056282E0,2.1624815E0,1.0018553E0,1.1606263E0],"tree_param":{"num_deleted":"0","num_feature":"9","num_nodes":"11","size_leaf_vector":"1"}},{"base_weights":[2.8816987E-2,1.3261753E-1,-6.2373925E-2,-5.372325E-2,2.6869282E-1,3.2776752E-3,1.1911505E-1],"categories":[],"categories_nodes":[],"categories_segments":[],"categories_sizes":[],"default_left":[0,0,0,0,0,0,0],"id":33,"left_children":[1,3,-1,-1,5,-1,-1],"loss_changes":[2.3374654E-1,3.2140535E-1,0E0,0E0,1.5729475E-1,0E0,0E0],"parents":[2147483647,0,0,1,1,4,4],"right_children":[2,4,-1,-1,6,-1,-1],"split_conditions":[1.1725794E0,6.4780575E-1,-6.2373925E-2,-5.372325E-2,6.883399E1,3.2776752E-3,1.1911505E-1],"split_indices":[8,8,0,0,2,0,0],"split_type":[0,0,0,0,0,0,0],"sum_hessian":[7.390349E0,5.4433584E0,1.9469901E0,1.5581746E0,3.885184E0,1.6522512E0,2.2329328E0],"tree_param":{"num_deleted":"0","num_feature":"9","num_nodes":"7","size_leaf_vector":"1"}},{"base_weights":[2.1286793E-2,-8.406575E-2,1.9329955E-1,1.2370865E-1,-1.00010656E-1,8.660265E-2,-5.8969897E-3,-1.4083873E-2,6.16095E-2],"categories":[],"categories_nodes":[],"categories_segments":[],"categories_sizes":[],"default_left":[0,0,0,0,0,0,0,0,0],"id":34,"left_children":[1,3,5,7,-1,-1,-1,-1,-1],"loss_changes":[1.678413E-1,3.4605813E-1,7.636471E-2,6.45313E-2,0E0,0E0,0E0,0E0,0E0],"parents":[2147483647,0,0,1,1,2,2,3,3],"right_children":[2,4,6,8,-1,-1,-1,-1,-1],"split_conditions":[6.0393883E1,5.943801E1,2.5185145E-2,2.3173552E-2,-1.00010656E-1,8.660265E-2,-5.8969897E-3,-1.4083873E-2,6.16095E-2],"split_indices":[1,1,6,6,0,0,0,0,0],"split_type":[0,0,0,0,0,0,0,0,0],"sum_hessian":[7.3650584E0,4.884645E0,2.4804134E0,2.9390016E0,1.9456432E0,1.4675734E0,1.01284E0,1.0887275E0,1.850274E0],"tree_param":{"num_deleted":"0","num_feature":"9","num_nodes":"9","size_leaf_vector":"1"}},{"base_weights":[1.8471861E-2,-6.526103E-2,6.86937E-2,1.1518193E-1,-2.9765734E-1,1.0235946E-1,-3.9270055E-2,-2.5927542E-2,-1.11963175E-1],"categories":[],"categories_nodes":[],"categories_segments":[],"categories_sizes":[],"default_left":[0,0,0,0,0,0,0,0,0],"id":35,"left_children":[1,3,-1,5,7,-1,-1,-1,-1],"loss_changes":[1.6165242E-1,3.166237E-1,0E0,2.955634E-1,1.9162804E-2,0E0,0E0,0E0,0E0],"parents":[2147483647,0,0,1,1,3,3,4,4],"right_children":[2,4,-1,6,8,-1,-1,-1,-1],"split_conditions":[3.295829E2,7.151925E1,6.86937E-2,2.4019665E-1,2.5185145E-2,1.0235946E-1,-3.9270055E-2,-2.5927542E-2,-1.11963175E-1],"split_indices":[0,0,0,4,6,0,0,0,0],"split_type":[0,0,0,0,0,0,0,0,0],"sum_hessian":[7.323268E0,5.732892E0,1.590376E0,3.5110934E0,2.2217984E0,1.6286886E0,1.8824048E0,1.1501367E0,1.0716617E0],"tree_param":{"num_deleted":"0","num_feature":"9","num_nodes":"9","size_leaf_vector":"1"}},{"base_weights":[1.2410357E-2,-6.2521055E-2,7.3511034E-2,-1.6158645E-1,5.4890174E-2,1.07616715E-1,-4.0910873E-1,-1.8953703E-2,7.0336364E-2,-1.5655804E-1,-2.6240816E-2],"categories":[],"categories_nodes":[],"categories_segments":[],"categories_sizes":[],"default_left":[0,0,0,0,0,0,0,0,0,0,0],"id":36,"left_children":[1,3,-1,5,-1,7,9,-1,-1,-1,-1],"loss_changes":[1.5888178E-1,2.0043671E-1,0E0,4.129802E-1,0E0,8.942308E-2,6.651974E-2,0E0,0E0,0E0,0E0],"parents":[2147483647,0,0,1,1,3,3,5,5,6,6],"right_children":[2,4,-1,6,-1,8,10,-1,-1,-1,-1],"split_conditions":[9.3846085E1,6.07905E1,7.3511034E-2,5.9204784E1,5.4890174E-2,7.224945E1,9.0545525E1,-1.8953703E-2,7.0336364E-2,-1.5655804E-1,-2.6240816E-2],"split_indices":[7,1,0,1,0,3,7,0,0,0,0],"split_type":[0,0,0,0,0,0,0,0,0,0,0],"sum_hessian":[7.2359953E0,6.026148E0,1.2098472E0,4.5370307E0,1.4891173E0,2.4440868E0,2.0929441E0,1.2554414E0,1.1886454E0,1.0887718E0,1.0041722E0],"tree_param":{"num_deleted":"0","num_feature":"9","num_nodes":"11","size_leaf_vector":"1"}},{"base_weights":[7.4052117E-3,9.011371E-2,-5.3676963E-2,-4.3674454E-2,1.9489135E-1,4.87736E-2,1.0594996E-1,6.8869516E-2,-4.919566E-2],"categories":[],"categories_nodes":[],"categories_segments":[],"categories_sizes":[],"default_left":[0,0,0,0,0,0,0,0,0],"id":37,"left_children":[1,3,-1,-1,5,7,-1,-1,-1],"loss_changes":[1.3929808E-1,1.8149966E-1,0E0,0E0,9.193319E-2,1.7667668E-1,0E0,0E0,0E0],"parents":[2147483647,0,0,1,1,4,4,5,5],"right_children":[2,4,-1,-1,6,8,-1,-1,-1],"split_conditions":[1.183502E0,6.4780575E-1,-5.3676963E-2,-4.3674454E-2,8.737295E1,2.3187113E-1,1.0594996E-1,6.8869516E-2,-4.919566E-2],"split_indices":[8,8,0,0,7,4,0,0,0],"split_type":[0,0,0,0,0,0,0,0,0],"sum_hessian":[6.9926763E0,5.200584E0,1.7920924E0,1.480591E0,3.7199926E0,2.6144867E0,1.105506E0,1.370726E0,1.2437608E0],"tree_param":{"num_deleted":"0","num_feature":"9","num_nodes":"9","size_leaf_vector":"1"}},{"base_weights":[9.129505E-3,6.0069002E-2,-5.8535695E-2,-1.639429E-1,5.5933796E-2,2.843481E-2,-2.6306558E-1,-2.4116525E-2,-1.21717274E-1],"categories":[],"categories_nodes":[],"categories_segments":[],"categories_sizes":[],"default_left":[0,0,0,0,0,0,0,0,0],"id":38,"left_children":[1,-1,3,5,-1,-1,7,-1,-1],"loss_changes":[1.1437771E-1,0E0,2.0194617E-1,1.5758151E-1,0E0,0E0,7.174322E-2,0E0,0E0],"parents":[2147483647,0,0,2,2,3,3,6,6],"right_children":[2,-1,4,6,-1,-1,8,-1,-1],"split_conditions":[3.4595814E1,6.0069002E-2,3.295829E2,2.091943E-1,5.5933796E-2,2.843481E-2,1.362794E2,-2.4116525E-2,-1.21717274E-1],"split_indices":[0,0,0,4,0,0,0,0,0],"split_type":[0,0,0,0,0,0,0,0,0],"sum_hessian":[6.9389277E0,1.3021785E0,5.636749E0,4.172333E0,1.4644163E0,1.1678491E0,3.0044837E0,2.003046E0,1.0014377E0],"tree_param":{"num_deleted":"0","num_feature":"9","num_nodes":"9","size_leaf_vector":"1"}},{"base_weights":[6.142694E-3,-6.1388038E-2,6.54685E-2,5.1003583E-2,-1.5625063E-1,-1.1105975E-1,8.0229916E-2,5.3733673E-2,-2.2737315E-2],"categories":[],"categories_nodes":[],"categories_segments":[],"categories_sizes":[],"default_left":[0,0,0,0,0,0,0,0,0],"id":39,"left_children":[1,3,-1,-1,5,-1,7,-1,-1],"loss_changes":[1.2643196E-1,1.7510042E-1,0E0,0E0,2.9887956E-1,0E0,6.524189E-2,0E0,0E0],"parents":[2147483647,0,0,1,1,4,4,6,6],"right_children":[2,4,-1,-1,6,-1,8,-1,-1],"split_conditions":[9.3846085E1,5.9193714E1,6.54685E-2,5.1003583E-2,6.016057E1,-1.1105975E-1,7.0733E1,5.3733673E-2,-2.2737315E-2],"split_indices":[7,5,0,0,1,0,0,0,0],"split_type":[0,0,0,0,0,0,0,0,0],"sum_hessian":[6.8922644E0,5.766643E0,1.1256211E0,1.4463484E0,4.320295E0,1.971336E0,2.3489587E0,1.3471601E0,1.0017986E0],"tree_param":{"num_deleted":"0","num_feature":"9","num_nodes":"9","size_leaf_vector":"1"}},{"base_weights":[8.841752E-3,-5.95008E-2,5.4792292E-2,7.699778E-2,-6.974165E-2,6.481708E-2,-2.8604694E-2],"categories":[],"categories_nodes":[],"categories_segments":[],"categories_sizes":[],"default_left":[0,0,0,0,0,0,0],"id":40,"left_children":[1,3,-1,5,-1,-1,-1],"loss_changes":[1.0292352E-1,1.6704775E-1,0E0,1.232243E-1,0E0,0E0,0E0],"parents":[2147483647,0,0,1,1,3,3],"right_children":[2,4,-1,6,-1,-1,-1],"split_conditions":[3.2949326E2,7.151925E1,5.4792292E-2,2.5342444E-1,-6.974165E-2,6.481708E-2,-2.8604694E-2],"split_indices":[3,0,0,4,0,0,0],"split_type":[0,0,0,0,0,0,0],"sum_hessian":[6.750223E0,5.3170586E0,1.4331648E0,3.2819743E0,2.0350842E0,1.6760358E0,1.6059386E0],"tree_param":{"num_deleted":"0","num_feature":"9","num_nodes":"7","size_leaf_vector":"1"}},{"base_weights":[9.077687E-3,-7.1742654E-2,5.0234437E-2,3.477606E-2,-1.9772182E-1,-1.3632824E-1,4.0053427E-2],"categories":[],"categories_nodes":[],"categories_segments":[],"categories_sizes":[],"default_left":[0,0,0,0,0,0,0],"id":41,"left_children":[1,3,-1,-1,5,-1,-1],"loss_changes":[1.10771656E-1,1.6024812E-1,0E0,0E0,3.876237E-1,0E0,0E0],"parents":[2147483647,0,0,1,1,4,4],"right_children":[2,4,-1,-1,6,-1,-1],"split_conditions":[9.3934425E1,5.922235E1,5.0234437E-2,3.477606E-2,6.07905E1,-1.3632824E-1,4.0053427E-2],"split_indices":[2,5,0,0,1,0,0],"split_type":[0,0,0,0,0,0,0],"sum_hessian":[6.7157764E0,4.8087482E0,1.9070283E0,1.9635795E0,2.8451686E0,1.3933767E0,1.451792E0],"tree_param":{"num_deleted":"0","num_feature":"9","num_nodes":"7","size_leaf_vector":"1"}},{"base_weights":[4.004429E-3,-6.386224E-2,5.3520627E-2,-1.734257E-1,3.4491703E-2,1.430204E-2,-8.356595E-2],"categories":[],"categories_nodes":[],"categories_segments":[],"categories_sizes":[],"default_left":[0,0,0,0,0,0,0],"id":42,"left_children":[1,3,-1,5,-1,-1,-1],"loss_changes":[1.0038407E-1,1.404194E-1,0E0,1.1117183E-1,0E0,0E0,0E0],"parents":[2147483647,0,0,1,1,3,3],"right_children":[2,4,-1,6,-1,-1,-1],"split_conditions":[3.2827225E2,6.0393883E1,5.3520627E-2,5.9193714E1,3.4491703E-2,1.430204E-2,-8.356595E-2],"split_indices":[3,1,0,5,0,0,0],"split_type":[0,0,0,0,0,0,0],"sum_hessian":[6.518799E0,5.148916E0,1.369883E0,3.2115788E0,1.937337E0,1.2110571E0,2.000522E0],"tree_param":{"num_deleted":"0","num_feature":"9","num_nodes":"7","size_leaf_vector":"1"}},{"base_weights":[5.2989465E-3,-7.727976E-2,4.9568444E-2,8.630023E-2,-2.1219984E-1,-2.3507353E-2,6.509661E-2,-1.3798623E-1,2.6810236E-2],"categories":[],"categories_nodes":[],"categories_segments":[],"categories_sizes":[],"default_left":[0,0,0,0,0,0,0,0,0],"id":43,"left_children":[1,3,-1,5,7,-1,-1,-1,-1],"loss_changes":[1.1162383E-1,1.4229609E-1,0E0,8.694001E-2,2.927161E-1,0E0,0E0,0E0,0E0],"parents":[2147483647,0,0,1,1,3,3,4,4],"right_children":[2,4,-1,6,8,-1,-1,-1,-1],"split_conditions":[9.3934425E1,5.9204784E1,4.9568444E-2,7.220125E1,6.0774773E1,-2.3507353E-2,6.509661E-2,-1.3798623E-1,2.6810236E-2],"split_indices":[2,1,0,0,5,0,0,0,0],"split_type":[0,0,0,0,0,0,0,0,0],"sum_hessian":[6.4851923E0,4.6176686E0,1.8675241E0,2.2500365E0,2.367632E0,1.172807E0,1.0772296E0,1.0114543E0,1.3561776E0],"tree_param":{"num_deleted":"0","num_feature":"9","num_nodes":"9","size_leaf_vector":"1"}},{"base_weights":[1.9733622E-4,7.175538E-2,-4.467421E-2,-3.771919E-2,1.6144449E-1,-1.0850685E-2,2.3551026E-1,9.137434E-2,2.0628214E-2],"categories":[],"categories_nodes":[],"categories_segments":[],"categories_sizes":[],"default_left":[0,0,0,0,0,0,0,0,0],"id":44,"left_children":[1,3,-1,-1,5,-1,7,-1,-1],"loss_changes":[8.8583484E-2,1.1962937E-1,0E0,0E0,7.1372055E-2,0E0,1.6566515E-2,0E0,0E0],"parents":[2147483647,0,0,1,1,4,4,6,6],"right_children":[2,4,-1,-1,6,-1,8,-1,-1],"split_conditions":[1.183502E0,6.4780575E-1,-4.467421E-2,-3.771919E-2,2.204598E-1,-1.0850685E-2,6.5905464E1,9.137434E-2,2.0628214E-2],"split_indices":[8,8,0,0,4,0,0,0,0],"split_type":[0,0,0,0,0,0,0,0,0],"sum_hessian":[6.3005857E0,4.608001E0,1.6925843E0,1.3136443E0,3.294357E0,1.037606E0,2.256751E0,1.011281E0,1.24547E0],"tree_param":{"num_deleted":"0","num_feature":"9","num_nodes":"9","size_leaf_vector":"1"}},{"base_weights":[2.8711776E-3,-5.8780886E-2,5.747506E-2,-1.6552868E-1,1.12055235E-1,5.3950094E-2,-1.2435866E-1,7.599889E-3,4.284627E-2,6.953985E-2,-4.244713E-2],"categories":[],"categories_nodes":[],"categories_segments":[],"categories_sizes":[],"default_left":[0,0,0,0,0,0,0,0,0,0,0],"id":45,"left_children":[1,3,-1,5,7,9,-1,-1,-1,-1,-1],"loss_changes":[9.602045E-2,1.326424E-1,0E0,2.548523E-1,4.3922216E-3,1.4214689E-1,0E0,0E0,0E0,0E0,0E0],"parents":[2147483647,0,0,1,1,3,3,4,4,5,5],"right_children":[2,4,-1,6,8,10,-1,-1,-1,-1,-1],"split_conditions":[9.3846085E1,2.5769165E-1,5.747506E-2,8.2750145E1,7.04301E1,2.4910266E-2,-1.2435866E-1,7.599889E-3,4.284627E-2,6.953985E-2,-4.244713E-2],"split_indices":[7,4,0,7,0,6,0,0,0,0,0],"split_type":[0,0,0,0,0,0,0,0,0,0,0],"sum_hessian":[6.285139E0,5.2563972E0,1.0287417E0,3.2541149E0,2.0022824E0,2.1459346E0,1.1081802E0,1.0018064E0,1.000476E0,1.026129E0,1.1198056E0],"tree_param":{"num_deleted":"0","num_feature":"9","num_nodes":"11","size_leaf_vector":"1"}},{"base_weights":[3.3287227E-3,-7.272134E-2,4.499983E-2,8.1725076E-2,-2.0094328E-1,-2.2428028E-2,6.208521E-2,-1.1535198E-1,2.6828254E-2],"categories":[],"categories_nodes":[],"categories_segments":[],"categories_sizes":[],"default_left":[0,0,0,0,0,0,0,0,0],"id":46,"left_children":[1,3,-1,5,7,-1,-1,-1,-1],"loss_changes":[9.092691E-2,1.2331544E-1,0E0,7.738221E-2,2.0699498E-1,0E0,0E0,0E0,0E0],"parents":[2147483647,0,0,1,1,3,3,4,4],"right_children":[2,4,-1,6,8,-1,-1,-1,-1],"split_conditions":[9.3934425E1,5.9204784E1,4.499983E-2,7.224945E1,6.080186E1,-2.2428028E-2,6.208521E-2,-1.1535198E-1,2.6828254E-2],"split_indices":[2,1,0,3,5,0,0,0,0],"split_type":[0,0,0,0,0,0,0,0,0],"sum_hessian":[6.1737924E0,4.3977213E0,1.7760713E0,2.1593544E0,2.2383668E0,1.1390121E0,1.0203422E0,1.1727802E0,1.0655866E0],"tree_param":{"num_deleted":"0","num_feature":"9","num_nodes":"9","size_leaf_vector":"1"}},{"base_weights":[1.3236713E-3,-1.1071055E-1,9.698616E-2,3.1192083E-2,-1.007531E-1,-3.1752773E-2,7.4762404E-2],"categories":[],"categories_nodes":[],"categories_segments":[],"categories_sizes":[],"default_left":[0,0,0,0,0,0,0],"id":47,"left_children":[1,3,5,-1,-1,-1,-1],"loss_changes":[8.6064816E-2,2.1395147E-1,1.5988895E-1,0E0,0E0,0E0,0E0],"parents":[2147483647,0,0,1,1,2,2],"right_children":[2,4,6,-1,-1,-1,-1],"split_conditions":[2.3241956E-2,2.082944E-2,6.4006516E1,3.1192083E-2,-1.007531E-1,-3.1752773E-2,7.4762404E-2],"split_indices":[6,6,7,0,0,0,0],"split_type":[0,0,0,0,0,0,0],"sum_hessian":[6.0284705E0,2.7041855E0,3.3242848E0,1.659692E0,1.0444934E0,1.5558573E0,1.7684275E0],"tree_param":{"num_deleted":"0","num_feature":"9","num_nodes":"7","size_leaf_vector":"1"}},{"base_weights":[-2.7993293E-3,-6.644549E-2,4.9465574E-2,6.8189524E-2,-6.7820124E-2,5.57791E-2,-2.4166627E-2],"categories":[],"categories_nodes":[],"categories_segments":[],"categories_sizes":[],"default_left":[0,0,0,0,0,0,0],"id":48,"left_children":[1,3,-1,5,-1,-1,-1],"loss_changes":[8.5231185E-2,1.3914807E-1,0E0,8.313031E-2,0E0,0E0,0E0],"parents":[2147483647,0,0,1,1,3,3],"right_children":[2,4,-1,6,-1,-1,-1],"split_conditions":[3.2827225E2,7.151925E1,4.9465574E-2,2.549799E-1,-6.7820124E-2,5.57791E-2,-2.4166627E-2],"split_indices":[3,0,0,4,0,0,0],"split_type":[0,0,0,0,0,0,0],"sum_hessian":[5.9595175E0,4.7575097E0,1.2020079E0,2.891467E0,1.8660425E0,1.4743968E0,1.4170703E0],"tree_param":{"num_deleted":"0","num_feature":"9","num_nodes":"7","size_leaf_vector":"1"}},{"base_weights":[3.9778894E-5,-6.471437E-2,3.7686177E-2,4.1838378E-2,-1.5708531E-1,-1.0923999E-1,1.2248562E-2],"categories":[],"categories_nodes":[],"categories_segments":[],"categories_sizes":[],"default_left":[0,0,0,0,0,0,0],"id":49,"left_children":[1,3,-1,-1,5,-1,-1],"loss_changes":[6.44731E-2,1.20572776E-1,0E0,0E0,1.817374E-1,0E0,0E0],"parents":[2147483647,0,0,1,1,4,4],"right_children":[2,4,-1,-1,6,-1,-1],"split_conditions":[9.3934425E1,3.6208748E1,3.7686177E-2,4.1838378E-2,2.2213353E-1,-1.0923999E-1,1.2248562E-2],"split_indices":[2,7,0,0,4,0,0],"split_type":[0,0,0,0,0,0,0],"sum_hessian":[5.9287353E0,4.231497E0,1.6972383E0,1.1592684E0,3.0722287E0,1.0910095E0,1.9812192E0],"tree_param":{"num_deleted":"0","num_feature":"9","num_nodes":"7","size_leaf_vector":"1"}},{"base_weights":[-2.7852252E-3,4.2440787E-2,-6.7806646E-2,-1.9898346E-1,7.454525E-2,1.5507114E-2,-1.03563E-1,-3.693309E-2,6.415965E-2],"categories":[],"categories_nodes":[],"categories_segments":[],"categories_sizes":[],"default_left":[0,0,0,0,0,0,0,0,0],"id":50,"left_children":[1,-1,3,5,7,-1,-1,-1,-1],"loss_changes":[7.380563E-2,0E0,1.15574986E-1,1.3075009E-1,1.1760859E-1,0E0,0E0,0E0,0E0],"parents":[2147483647,0,0,2,2,3,3,4,4],"right_children":[2,-1,4,6,8,-1,-1,-1,-1],"split_conditions":[2.1023637E-1,4.2440787E-2,2.3241956E-2,8.190512E1,8.804355E-1,1.5507114E-2,-1.03563E-1,-3.693309E-2,6.415965E-2],"split_indices":[4,0,6,7,8,0,0,0,0],"split_type":[0,0,0,0,0,0,0,0,0],"sum_hessian":[5.84601E0,1.4510412E0,4.394969E0,2.0802226E0,2.3147464E0,1.0045842E0,1.0756384E0,1.0051194E0,1.309627E0],"tree_param":{"num_deleted":"0","num_feature":"9","num_nodes":"9","size_leaf_vector":"1"}},{"base_weights":[-4.639616E-3,-6.950615E-2,3.6873847E-2,8.0540605E-2,-1.910486E-1,1.6330779E-3,3.463853E-2,-1.078214E-1,2.3859875E-2],"categories":[],"categories_nodes":[],"categories_segments":[],"categories_sizes":[],"default_left":[0,0,0,0,0,0,0,0,0],"id":51,"left_children":[1,3,-1,5,7,-1,-1,-1,-1],"loss_changes":[6.47366E-2,1.091419E-1,0E0,7.2496906E-3,1.7147739E-1,0E0,0E0,0E0,0E0],"parents":[2147483647,0,0,1,1,3,3,4,4],"right_children":[2,4,-1,6,8,-1,-1,-1,-1],"split_conditions":[9.3934425E1,5.9204784E1,3.6873847E-2,2.3128451E-1,6.080186E1,1.6330779E-3,3.463853E-2,-1.078214E-1,2.3859875E-2],"split_indices":[2,1,0,4,5,0,0,0,0],"split_type":[0,0,0,0,0,0,0,0,0],"sum_hessian":[5.7916584E0,4.140893E0,1.6507652E0,2.0041153E0,2.1367776E0,1.0030231E0,1.0010923E0,1.1148497E0,1.0219281E0],"tree_param":{"num_deleted":"0","num_feature":"9","num_nodes":"9","size_leaf_vector":"1"}},{"base_weights":[-5.4252204E-3,-6.503338E-2,4.624984E-2,4.139993E-2,-1.4106773E-1,-2.0632647E-1,3.493838E-3,-2.028782E-2,-7.5717635E-2],"categories":[],"categories_nodes":[],"categories_segments":[],"categories_sizes":[],"default_left":[0,0,0,0,0,0,0,0,0],"id":52,"left_children":[1,3,-1,-1,5,7,-1,-1,-1],"loss_changes":[7.3585905E-2,1.05420426E-1,0E0,0E0,4.7701135E-2,3.6198795E-3,0E0,0E0,0E0],"parents":[2147483647,0,0,1,1,4,4,5,5],"right_children":[2,4,-1,-1,6,8,-1,-1,-1],"split_conditions":[3.2827225E2,3.464777E1,4.624984E-2,4.139993E-2,6.033485E1,7.207961E1,3.493838E-3,-2.028782E-2,-7.5717635E-2],"split_indices":[3,0,0,0,5,3,0,0,0],"split_type":[0,0,0,0,0,0,0,0,0],"sum_hessian":[5.681416E0,4.567815E0,1.1136011E0,1.0224961E0,3.5453188E0,2.237927E0,1.3073919E0,1.173285E0,1.0646418E0],"tree_param":{"num_deleted":"0","num_feature":"9","num_nodes":"9","size_leaf_vector":"1"}},{"base_weights":[-4.508365E-3,3.7434492E-2,-6.283942E-2,4.6938736E-2,-6.52188E-2,-5.190379E-2,5.5024806E-2],"categories":[],"categories_nodes":[],"categories_segments":[],"categories_sizes":[],"default_left":[0,0,0,0,0,0,0],"id":53,"left_children":[1,-1,3,5,-1,-1,-1],"loss_changes":[5.8118463E-2,0E0,9.943449E-2,1.4872693E-1,0E0,0E0,0E0],"parents":[2147483647,0,0,2,2,3,3],"right_children":[2,-1,4,6,-1,-1,-1],"split_conditions":[2.1023637E-1,3.7434492E-2,1.154081E0,7.066296E-1,-6.52188E-2,-5.190379E-2,5.5024806E-2],"split_indices":[4,0,8,8,0,0,0],"split_type":[0,0,0,0,0,0,0],"sum_hessian":[5.6666365E0,1.4075729E0,4.2590637E0,2.8974023E0,1.3616613E0,1.0069175E0,1.8904849E0],"tree_param":{"num_deleted":"0","num_feature":"9","num_nodes":"7","size_leaf_vector":"1"}},{"base_weights":[-6.832753E-3,-7.354598E-2,3.7666887E-2,2.0327685E-2,-5.579612E-2],"categories":[],"categories_nodes":[],"categories_segments":[],"categories_sizes":[],"default_left":[0,0,0,0,0],"id":54,"left_children":[1,3,-1,-1,-1],"loss_changes":[6.7796186E-2,9.2672095E-2,0E0,0E0,0E0],"parents":[2147483647,0,0,1,1],"right_children":[2,4,-1,-1,-1],"split_conditions":[9.3934425E1,5.9204784E1,3.7666887E-2,2.0327685E-2,-5.579612E-2],"split_indices":[2,1,0,0,0],"split_type":[0,0,0,0,0],"sum_hessian":[5.6305895E0,4.0394893E0,1.5911005E0,1.9660867E0,2.0734024E0],"tree_param":{"num_deleted":"0","num_feature":"9","num_nodes":"5","size_leaf_vector":"1"}},{"base_weights":[-4.536969E-3,-5.611575E-2,4.0340144E-2,-1.4270216E-1,2.6039788E-2,9.392084E-3,-6.723818E-2],"categories":[],"categories_nodes":[],"categories_segments":[],"categories_sizes":[],"default_left":[0,0,0,0,0,0,0],"id":55,"left_children":[1,3,-1,5,-1,-1,-1],"loss_changes":[5.4642275E-2,8.040469E-2,0E0,6.0873076E-2,0E0,0E0,0E0],"parents":[2147483647,0,0,1,1,3,3],"right_children":[2,4,-1,6,-1,-1,-1],"split_conditions":[3.295829E2,6.0393883E1,4.0340144E-2,5.9193714E1,2.6039788E-2,9.392084E-3,-6.723818E-2],"split_indices":[0,1,0,5,0,0,0],"split_type":[0,0,0,0,0,0,0],"sum_hessian":[5.5688663E0,4.496645E0,1.0722209E0,2.8010764E0,1.6955689E0,1.0891105E0,1.7119659E0],"tree_param":{"num_deleted":"0","num_feature":"9","num_nodes":"7","size_leaf_vector":"1"}},{"base_weights":[-1.8844346E-3,-6.8497434E-2,3.8359273E-2,3.3608425E-2,-1.4796667E-1,-9.707775E-2,8.217634E-3],"categories":[],"categories_nodes":[],"categories_segments":[],"categories_sizes":[],"default_left":[0,0,0,0,0,0,0],"id":56,"left_children":[1,3,-1,-1,5,-1,-1],"loss_changes":[6.5359645E-2,8.7997675E-2,0E0,0E0,1.2859246E-1,0E0,0E0],"parents":[2147483647,0,0,1,1,4,4],"right_children":[2,4,-1,-1,6,-1,-1],"split_conditions":[9.3934425E1,3.6208748E1,3.8359273E-2,3.3608425E-2,2.2213353E-1,-9.707775E-2,8.217634E-3],"split_indices":[2,7,0,0,4,0,0],"split_type":[0,0,0,0,0,0,0],"sum_hessian":[5.548837E0,3.9784012E0,1.5704361E0,1.0907974E0,2.8876038E0,1.0203667E0,1.8672372E0],"tree_param":{"num_deleted":"0","num_feature":"9","num_nodes":"7","size_leaf_vector":"1"}},{"base_weights":[-4.108005E-3,3.7444588E-2,-6.20328E-2,-5.1532827E-2,6.193039E-2,-2.9825622E-2,5.6878675E-2],"categories":[],"categories_nodes":[],"categories_segments":[],"categories_sizes":[],"default_left":[0,0,0,0,0,0,0],"id":57,"left_children":[1,-1,3,-1,5,-1,-1],"loss_changes":[5.6152806E-2,0E0,8.057487E-2,0E0,8.371522E-2,0E0,0E0],"parents":[2147483647,0,0,2,2,4,4],"right_children":[2,-1,4,-1,6,-1,-1],"split_conditions":[2.1023637E-1,3.7444588E-2,2.3241956E-2,-5.1532827E-2,9.599694E-1,-2.9825622E-2,5.6878675E-2],"split_indices":[4,0,6,0,8,0,0],"split_type":[0,0,0,0,0,0,0],"sum_hessian":[5.482473E0,1.341628E0,4.140845E0,1.9918122E0,2.1490324E0,1.0470177E0,1.1020148E0],"tree_param":{"num_deleted":"0","num_feature":"9","num_nodes":"7","size_leaf_vector":"1"}},{"base_weights":[-7.9130946E-4,-5.9500027E-2,3.4130625E-2,-1.3989113E-1,2.6797377E-2,2.6146937E-2,-8.738726E-2],"categories":[],"categories_nodes":[],"categories_segments":[],"categories_sizes":[],"default_left":[0,0,0,0,0,0,0],"id":58,"left_children":[1,3,-1,5,-1,-1,-1],"loss_changes":[5.0130613E-2,7.135056E-2,0E0,1.4857598E-1,0E0,0E0,0E0],"parents":[2147483647,0,0,1,1,3,3],"right_children":[2,4,-1,6,-1,-1,-1],"split_conditions":[9.3934425E1,6.07905E1,3.4130625E-2,5.9193714E1,2.6797377E-2,2.6146937E-2,-8.738726E-2],"split_indices":[2,1,0,5,0,0,0],"split_type":[0,0,0,0,0,0,0],"sum_hessian":[5.447141E0,3.919257E0,1.5278844E0,2.5836596E0,1.3355972E0,1.2033608E0,1.380299E0],"tree_param":{"num_deleted":"0","num_feature":"9","num_nodes":"7","size_leaf_vector":"1"}},{"base_weights":[-9.2215184E-4,-5.339809E-2,4.1514594E-2,6.651919E-2,-5.456227E-2,9.057649E-2,-5.9819136E-2],"categories":[],"categories_nodes":[],"categories_segments":[],"categories_sizes":[],"default_left":[0,0,0,0,0,0,0],"id":59,"left_children":[1,3,-1,5,-1,-1,-1],"loss_changes":[5.3849485E-2,9.433978E-2,0E0,2.788689E-1,0E0,0E0,0E0],"parents":[2147483647,0,0,1,1,3,3],"right_children":[2,4,-1,6,-1,-1,-1],"split_conditions":[3.2827225E2,2.5253348E-2,4.1514594E-2,2.549799E-1,-5.456227E-2,9.057649E-2,-5.9819136E-2],"split_indices":[3,6,0,4,0,0,0],"split_type":[0,0,0,0,0,0,0],"sum_hessian":[5.355599E0,4.3381104E0,1.0174886E0,2.4932246E0,1.8448856E0,1.2506689E0,1.2425557E0],"tree_param":{"num_deleted":"0","num_feature":"9","num_nodes":"7","size_leaf_vector":"1"}},{"base_weights":[2.4632828E-3,-5.1675294E-2,3.1865682E-2,2.3105862E-2,-4.7507524E-2],"categories":[],"categories_nodes":[],"categories_segments":[],"categories_sizes":[],"default_left":[0,0,0,0,0],"id":60,"left_children":[1,3,-1,-1,-1],"loss_changes":[4.086388E-2,7.8250095E-2,0E0,0E0,0E0],"parents":[2147483647,0,0,1,1],"right_children":[2,4,-1,-1,-1],"split_conditions":[9.3934425E1,5.9204784E1,3.1865682E-2,2.3105862E-2,-4.7507524E-2],"split_indices":[2,1,0,0,0],"split_type":[0,0,0,0,0],"sum_hessian":[5.2976375E0,3.8110335E0,1.4866037E0,1.8533449E0,1.9576886E0],"tree_param":{"num_deleted":"0","num_feature":"9","num_nodes":"5","size_leaf_vector":"1"}},{"base_weights":[2.9163037E-3,-4.223868E-2,3.594265E-2,5.853138E-2,-4.7459792E-2,5.744346E-2,-2.1341203E-2],"categories":[],"categories_nodes":[],"categories_segments":[],"categories_sizes":[],"default_left":[0,0,0,0,0,0,0],"id":61,"left_children":[1,3,-1,5,-1,-1,-1],"loss_changes":[3.8050544E-2,7.0582785E-2,0E0,7.460913E-2,0E0,0E0,0E0],"parents":[2147483647,0,0,1,1,3,3],"right_children":[2,4,-1,6,-1,-1,-1],"split_conditions":[3.2783237E2,7.151925E1,3.594265E-2,9.781249E-1,-4.7459792E-2,5.744346E-2,-2.1341203E-2],"split_indices":[0,0,0,8,0,0,0],"split_type":[0,0,0,0,0,0,0],"sum_hessian":[5.250137E0,4.247863E0,1.002274E0,2.5377765E0,1.7100865E0,1.0176884E0,1.5200882E0],"tree_param":{"num_deleted":"0","num_feature":"9","num_nodes":"7","size_leaf_vector":"1"}},{"base_weights":[6.077812E-3,-2.435216E-2,6.0619082E-2,-7.778504E-2,7.196718E-2,-4.862618E-2,1.551955E-2],"categories":[],"categories_nodes":[],"categories_segments":[],"categories_sizes":[],"default_left":[0,0,0,0,0,0,0],"id":62,"left_children":[1,-1,3,5,-1,-1,-1],"loss_changes":[3.458795E-2,0E0,1.2804694E-1,4.379443E-2,0E0,0E0,0E0],"parents":[2147483647,0,0,2,2,3,3],"right_children":[2,-1,4,6,-1,-1,-1],"split_conditions":[6.6007164E1,-2.435216E-2,2.7615568E-2,1.0161334E0,7.196718E-2,-4.862618E-2,1.551955E-2],"split_indices":[0,0,6,8,0,0,0],"split_type":[0,0,0,0,0,0,0],"sum_hessian":[5.234168E0,1.8255183E0,3.40865E0,2.2430437E0,1.1656064E0,1.2063543E0,1.0366893E0],"tree_param":{"num_deleted":"0","num_feature":"9","num_nodes":"7","size_leaf_vector":"1"}},{"base_weights":[6.789199E-3,3.272596E-2,-4.8321784E-2,-5.4302093E-2,7.69823E-2,-1.980567E-2,5.6977924E-2],"categories":[],"categories_nodes":[],"categories_segments":[],"categories_sizes":[],"default_left":[0,0,0,0,0,0,0],"id":63,"left_children":[1,-1,3,-1,5,-1,-1],"loss_changes":[4.02147E-2,0E0,9.242754E-2,0E0,6.3086934E-2,0E0,0E0],"parents":[2147483647,0,0,2,2,4,4],"right_children":[2,-1,4,-1,6,-1,-1],"split_conditions":[2.082944E-2,3.272596E-2,8.835261E-1,-5.4302093E-2,2.3353258E-1,-1.980567E-2,5.6977924E-2],"split_indices":[6,0,8,0,4,0,0],"split_type":[0,0,0,0,0,0,0],"sum_hessian":[5.198167E0,1.4770538E0,3.721113E0,1.591414E0,2.129699E0,1.123139E0,1.0065598E0],"tree_param":{"num_deleted":"0","num_feature":"9","num_nodes":"7","size_leaf_vector":"1"}},{"base_weights":[7.393365E-3,-4.747451E-2,3.3206582E-2,-1.3063827E-1,2.9197339E-2,2.3520662E-2,-8.117931E-2],"categories":[],"categories_nodes":[],"categories_segments":[],"categories_sizes":[],"default_left":[0,0,0,0,0,0,0],"id":64,"left_children":[1,3,-1,5,-1,-1,-1],"loss_changes":[4.019255E-2,6.962261E-2,0E0,1.2152966E-1,0E0,0E0,0E0],"parents":[2147483647,0,0,1,1,3,3],"right_children":[2,4,-1,6,-1,-1,-1],"split_conditions":[9.3934425E1,6.07905E1,3.3206582E-2,5.9193714E1,2.9197339E-2,2.3520662E-2,-8.117931E-2],"split_indices":[2,1,0,5,0,0,0],"split_type":[0,0,0,0,0,0,0],"sum_hessian":[5.1644654E0,3.7258081E0,1.4386574E0,2.4287035E0,1.2971046E0,1.1503648E0,1.2783388E0],"tree_param":{"num_deleted":"0","num_feature":"9","num_nodes":"7","size_leaf_vector":"1"}},{"base_weights":[5.7857507E-3,3.566657E-2,-4.0254153E-2,-5.6289557E-2,4.6576705E-2,-2.9180808E-2,5.4845463E-2],"categories":[],"categories_nodes":[],"categories_segments":[],"categories_sizes":[],"default_left":[0,0,0,0,0,0,0],"id":65,"left_children":[1,-1,3,-1,5,-1,-1],"loss_changes":[3.6476016E-2,0E0,7.3648386E-2,0E0,9.603431E-2,0E0,0E0],"parents":[2147483647,0,0,2,2,4,4],"right_children":[2,-1,4,-1,6,-1,-1],"split_conditions":[3.6208748E1,3.566657E-2,6.4006516E1,-5.6289557E-2,2.3038711E-2,-2.9180808E-2,5.4845463E-2],"split_indices":[7,0,7,0,6,0,0],"split_type":[0,0,0,0,0,0,0],"sum_hessian":[5.085804E0,1.0135635E0,4.0722404E0,1.0793592E0,2.9928813E0,1.5949539E0,1.3979273E0],"tree_param":{"num_deleted":"0","num_feature":"9","num_nodes":"7","size_leaf_vector":"1"}},{"base_weights":[4.991486E-3,3.1072114E-2,-4.815515E-2,-4.998291E-2,6.69104E-2,-1.2277887E-2,4.292423E-2],"categories":[],"categories_nodes":[],"categories_segments":[],"categories_sizes":[],"default_left":[0,0,0,0,0,0,0],"id":66,"left_children":[1,-1,3,-1,5,-1,-1],"loss_changes":[3.6692455E-2,0E0,7.404149E-2,0E0,3.0942194E-2,0E0,0E0],"parents":[2147483647,0,0,2,2,4,4],"right_children":[2,-1,4,-1,6,-1,-1],"split_conditions":[2.082944E-2,3.1072114E-2,8.835261E-1,-4.998291E-2,2.2794248E-1,-1.2277887E-2,4.292423E-2],"split_indices":[6,0,8,0,4,0,0],"split_type":[0,0,0,0,0,0,0],"sum_hessian":[5.051337E0,1.4370008E0,3.614336E0,1.5602145E0,2.0541215E0,1.0418472E0,1.0122743E0],"tree_param":{"num_deleted":"0","num_feature":"9","num_nodes":"7","size_leaf_vector":"1"}},{"base_weights":[5.500041E-3,3.508476E-2,-4.745186E-2,5.770078E-2,-5.6811195E-2,5.302972E-2,-2.259828E-2],"categories":[],"categories_nodes":[],"categories_segments":[],"categories_sizes":[],"default_left":[0,0,0,0,0,0,0],"id":67,"left_children":[1,-1,3,5,-1,-1,-1],"loss_changes":[4.112175E-2,0E0,8.252241E-2,6.910406E-2,0E0,0E0,0E0],"parents":[2147483647,0,0,2,2,3,3],"right_children":[2,-1,4,6,-1,-1,-1],"split_conditions":[2.1023637E-1,3.508476E-2,1.154081E0,7.1783554E1,-5.6811195E-2,5.302972E-2,-2.259828E-2],"split_indices":[4,0,8,3,0,0,0],"split_type":[0,0,0,0,0,0,0],"sum_hessian":[5.0277267E0,1.2301039E0,3.7976227E0,2.5222342E0,1.2753884E0,1.1574737E0,1.3647606E0],"tree_param":{"num_deleted":"0","num_feature":"9","num_nodes":"7","size_leaf_vector":"1"}},{"base_weights":[5.3778654E-3,-3.024286E-2,7.339302E-2,-4.741979E-2,6.5676056E-2,-2.8992984E-2,8.301038E-3],"categories":[],"categories_nodes":[],"categories_segments":[],"categories_sizes":[],"default_left":[0,0,0,0,0,0,0],"id":68,"left_children":[1,-1,3,5,-1,-1,-1],"loss_changes":[5.0737023E-2,0E0,8.4864005E-2,1.4268048E-2,0E0,0E0,0E0],"parents":[2147483647,0,0,2,2,3,3],"right_children":[2,-1,4,6,-1,-1,-1],"split_conditions":[6.6007164E1,-3.024286E-2,2.7615568E-2,1.0087358E0,6.5676056E-2,-2.8992984E-2,8.301038E-3],"split_indices":[0,0,6,8,0,0,0],"split_type":[0,0,0,0,0,0,0],"sum_hessian":[5.0005813E0,1.7641585E0,3.2364225E0,2.136723E0,1.0996995E0,1.1172808E0,1.0194422E0],"tree_param":{"num_deleted":"0","num_feature":"9","num_nodes":"7","size_leaf_vector":"1"}},{"base_weights":[6.379855E-3,-4.6276666E-2,3.1645134E-2,2.220003E-2,-4.3417934E-2],"categories":[],"categories_nodes":[],"categories_segments":[],"categories_sizes":[],"default_left":[0,0,0,0,0],"id":69,"left_children":[1,3,-1,-1,-1],"loss_changes":[3.6059476E-2,6.513942E-2,0E0,0E0,0E0],"parents":[2147483647,0,0,1,1],"right_children":[2,4,-1,-1,-1],"split_conditions":[9.3934425E1,5.9204784E1,3.1645134E-2,2.220003E-2,-4.3417934E-2],"split_indices":[2,1,0,0,0],"split_type":[0,0,0,0,0],"sum_hessian":[4.9745584E0,3.5966256E0,1.3779328E0,1.7306389E0,1.8659867E0],"tree_param":{"num_deleted":"0","num_feature":"9","num_nodes":"5","size_leaf_vector":"1"}},{"base_weights":[6.250336E-3,-4.715751E-2,3.4730908E-2,2.0723298E-2,-4.2988308E-2],"categories":[],"categories_nodes":[],"categories_segments":[],"categories_sizes":[],"default_left":[0,0,0,0,0],"id":70,"left_children":[1,3,-1,-1,-1],"loss_changes":[4.0167E-2,6.2409665E-2,0E0,0E0,0E0],"parents":[2147483647,0,0,1,1],"right_children":[2,4,-1,-1,-1],"split_conditions":[6.0774773E1,5.9212715E1,3.4730908E-2,2.0723298E-2,-4.2988308E-2],"split_indices":[5,1,0,0,0],"split_type":[0,0,0,0,0],"sum_hessian":[4.9337397E0,3.6992095E0,1.2345303E0,1.8019769E0,1.8972324E0],"tree_param":{"num_deleted":"0","num_feature":"9","num_nodes":"5","size_leaf_vector":"1"}},{"base_weights":[6.5178964E-3,-4.869904E-2,3.2761786E-2,-1.3065477E-1,2.7320968E-2,1.5610181E-2,-7.3972926E-2],"categories":[],"categories_nodes":[],"categories_segments":[],"categories_sizes":[],"default_left":[0,0,0,0,0,0,0],"id":71,"left_children":[1,3,-1,5,-1,-1,-1],"loss_changes":[3.8871486E-2,6.390233E-2,0E0,8.213481E-2,0E0,0E0,0E0],"parents":[2147483647,0,0,1,1,3,3],"right_children":[2,4,-1,6,-1,-1,-1],"split_conditions":[9.3934425E1,6.07905E1,3.2761786E-2,5.9193714E1,2.7320968E-2,1.5610181E-2,-7.3972926E-2],"split_indices":[2,1,0,5,0,0,0],"split_type":[0,0,0,0,0,0,0],"sum_hessian":[4.9175577E0,3.539872E0,1.377686E0,2.2725406E0,1.2673314E0,1.0961586E0,1.176382E0],"tree_param":{"num_deleted":"0","num_feature":"9","num_nodes":"7","size_leaf_vector":"1"}},{"base_weights":[4.73408E-3,-2.6302565E-2,6.437194E-2,-4.3259364E-2,5.8342177E-2,-2.7257724E-2,8.028212E-3],"categories":[],"categories_nodes":[],"categories_segments":[],"categories_sizes":[],"default_left":[0,0,0,0,0,0,0],"id":72,"left_children":[1,-1,3,5,-1,-1,-1],"loss_changes":[3.790449E-2,0E0,6.630648E-2,1.2698913E-2,0E0,0E0,0E0],"parents":[2147483647,0,0,2,2,3,3],"right_children":[2,-1,4,6,-1,-1,-1],"split_conditions":[6.6007164E1,-2.6302565E-2,2.7615568E-2,2.259797E-1,5.8342177E-2,-2.7257724E-2,8.028212E-3],"split_indices":[0,0,6,4,0,0,0],"split_type":[0,0,0,0,0,0,0],"sum_hessian":[4.85377E0,1.719408E0,3.1343615E0,2.0806057E0,1.0537558E0,1.0614299E0,1.0191759E0],"tree_param":{"num_deleted":"0","num_feature":"9","num_nodes":"7","size_leaf_vector":"1"}},{"base_weights":[5.618712E-3,3.2313053E-2,-5.0222315E-2,-4.6197154E-2,1.6564583E-2],"categories":[],"categories_nodes":[],"categories_segments":[],"categories_sizes":[],"default_left":[0,0,0,0,0],"id":73,"left_children":[1,-1,3,-1,-1],"loss_changes":[3.865519E-2,0E0,5.7209406E-2,0E0,0E0],"parents":[2147483647,0,0,2,2],"right_children":[2,-1,4,-1,-1],"split_conditions":[2.082944E-2,3.2313053E-2,8.835261E-1,-4.6197154E-2,1.6564583E-2],"split_indices":[6,0,8,0,0],"split_type":[0,0,0,0,0],"sum_hessian":[4.8316736E0,1.3799344E0,3.4517393E0,1.5075594E0,1.9441798E0],"tree_param":{"num_deleted":"0","num_feature":"9","num_nodes":"5","size_leaf_vector":"1"}},{"base_weights":[4.4258204E-3,-4.6626393E-2,2.9807309E-2,3.2858256E-2,-1.2562588E-1,1.9442722E-2,-7.0581764E-2],"categories":[],"categories_nodes":[],"categories_segments":[],"categories_sizes":[],"default_left":[0,0,0,0,0,0,0],"id":74,"left_children":[1,3,-1,-1,5,-1,-1],"loss_changes":[3.281604E-2,6.880529E-2,0E0,0E0,8.6844854E-2,0E0,0E0],"parents":[2147483647,0,0,1,1,4,4],"right_children":[2,4,-1,-1,6,-1,-1],"split_conditions":[9.3934425E1,8.7048596E-1,2.9807309E-2,3.2858256E-2,5.57976E1,1.9442722E-2,-7.0581764E-2],"split_indices":[2,8,0,0,7,0,0],"split_type":[0,0,0,0,0,0,0],"sum_hessian":[4.8152184E0,3.46218E0,1.3530384E0,1.0332932E0,2.428887E0,1.0369076E0,1.3919792E0],"tree_param":{"num_deleted":"0","num_feature":"9","num_nodes":"7","size_leaf_vector":"1"}},{"base_weights":[5.03239E-3,3.0907892E-2,-4.1992567E-2,4.9937963E-2,-5.1464E-2,5.0638333E-2,-2.4228008E-2],"categories":[],"categories_nodes":[],"categories_segments":[],"categories_sizes":[],"default_left":[0,0,0,0,0,0,0],"id":75,"left_children":[1,-1,3,5,-1,-1,-1],"loss_changes":[3.09134E-2,0E0,6.3461095E-2,6.754459E-2,0E0,0E0,0E0],"parents":[2147483647,0,0,2,2,3,3],"right_children":[2,-1,4,6,-1,-1,-1],"split_conditions":[2.1023637E-1,3.0907892E-2,1.183502E0,7.1783554E1,-5.1464E-2,5.0638333E-2,-2.4228008E-2],"split_indices":[4,0,8,3,0,0,0],"split_type":[0,0,0,0,0,0,0],"sum_hessian":[4.7695613E0,1.1604495E0,3.609112E0,2.4705613E0,1.1385506E0,1.1412377E0,1.3293236E0],"tree_param":{"num_deleted":"0","num_feature":"9","num_nodes":"7","size_leaf_vector":"1"}},{"base_weights":[4.6144975E-3,-2.6228527E-2,6.4392254E-2,-1.6844908E-2,4.4997327E-2],"categories":[],"categories_nodes":[],"categories_segments":[],"categories_sizes":[],"default_left":[0,0,0,0,0],"id":76,"left_children":[1,-1,3,-1,-1],"loss_changes":[3.7250277E-2,0E0,5.0314404E-2,0E0,0E0],"parents":[2147483647,0,0,2,2],"right_children":[2,-1,4,-1,-1],"split_conditions":[6.6007164E1,-2.6228527E-2,8.835261E-1,-1.6844908E-2,4.4997327E-2],"split_indices":[0,0,8,0,0],"split_type":[0,0,0,0,0],"sum_hessian":[4.746979E0,1.6869447E0,3.0600345E0,1.4135219E0,1.6465125E0],"tree_param":{"num_deleted":"0","num_feature":"9","num_nodes":"5","size_leaf_vector":"1"}},{"base_weights":[3.6419271E-3,-4.4366974E-2,2.8031817E-2,2.7698806E-2,-1.1327697E-1,1.48611115E-2,-6.1223373E-2],"categories":[],"categories_nodes":[],"categories_segments":[],"categories_sizes":[],"default_left":[0,0,0,0,0,0,0],"id":77,"left_children":[1,3,-1,-1,5,-1,-1],"loss_changes":[2.885505E-2,5.2027036E-2,0E0,0E0,6.0121696E-2,0E0,0E0],"parents":[2147483647,0,0,1,1,4,4],"right_children":[2,4,-1,-1,6,-1,-1],"split_conditions":[9.3934425E1,8.7048596E-1,2.8031817E-2,2.7698806E-2,5.57976E1,1.48611115E-2,-6.1223373E-2],"split_indices":[2,8,0,0,7,0,0],"split_type":[0,0,0,0,0,0,0],"sum_hessian":[4.731613E0,3.4128854E0,1.3187276E0,1.029942E0,2.3829434E0,1.0158603E0,1.3670831E0],"tree_param":{"num_deleted":"0","num_feature":"9","num_nodes":"7","size_leaf_vector":"1"}},{"base_weights":[4.158127E-3,2.4831485E-2,-5.0915286E-2,-5.0935414E-2,2.0966962E-2],"categories":[],"categories_nodes":[],"categories_segments":[],"categories_sizes":[],"default_left":[0,0,0,0,0],"id":78,"left_children":[1,-1,3,-1,-1],"loss_changes":[2.8873354E-2,0E0,6.8852246E-2,0E0,0E0],"parents":[2147483647,0,0,2,2],"right_children":[2,-1,4,-1,-1],"split_conditions":[5.9212715E1,2.4831485E-2,6.0393883E1,-5.0935414E-2,2.0966962E-2],"split_indices":[1,0,1,0,0],"split_type":[0,0,0,0,0],"sum_hessian":[4.695563E0,1.7271885E0,2.9683743E0,1.2918158E0,1.6765586E0],"tree_param":{"num_deleted":"0","num_feature":"9","num_nodes":"5","size_leaf_vector":"1"}},{"base_weights":[2.026714E-3,-4.9025342E-2,2.932527E-2,1.8140124E-2,-4.114159E-2],"categories":[],"categories_nodes":[],"categories_segments":[],"categories_sizes":[],"default_left":[0,0,0,0,0],"id":79,"left_children":[1,3,-1,-1,-1],"loss_changes":[3.2560002E-2,5.046933E-2,0E0,0E0,0E0],"parents":[2147483647,0,0,1,1],"right_children":[2,4,-1,-1,-1],"split_conditions":[9.3934425E1,5.9204784E1,2.932527E-2,1.8140124E-2,-4.114159E-2],"split_indices":[2,1,0,0,0],"split_type":[0,0,0,0,0],"sum_hessian":[4.6820555E0,3.3716955E0,1.3103602E0,1.6433601E0,1.7283354E0],"tree_param":{"num_deleted":"0","num_feature":"9","num_nodes":"5","size_leaf_vector":"1"}},{"base_weights":[2.5408773E-3,-4.324684E-2,2.8614556E-2,1.6311055E-2,-3.979209E-2],"categories":[],"categories_nodes":[],"categories_segments":[],"categories_sizes":[],"default_left":[0,0,0,0,0],"id":80,"left_children":[1,3,-1,-1,-1],"loss_changes":[2.8137727E-2,4.6227686E-2,0E0,0E0,0E0],"parents":[2147483647,0,0,1,1],"right_children":[2,4,-1,-1,-1],"split_conditions":[6.0774773E1,5.943801E1,2.8614556E-2,1.6311055E-2,-3.979209E-2],"split_indices":[5,1,0,0,0],"split_type":[0,0,0,0,0],"sum_hessian":[4.648764E0,3.4710703E0,1.177694E0,1.8464969E0,1.6245735E0],"tree_param":{"num_deleted":"0","num_feature":"9","num_nodes":"5","size_leaf_vector":"1"}},{"base_weights":[2.7094784E-3,-4.966444E-2,2.9965054E-2,-1.21850476E-1,2.230037E-2,9.996559E-3,-6.5000445E-2],"categories":[],"categories_nodes":[],"categories_segments":[],"categories_sizes":[],"default_left":[0,0,0,0,0,0,0],"id":81,"left_children":[1,3,-1,5,-1,-1,-1],"loss_changes":[3.3657126E-2,4.7830842E-2,0E0,5.3076986E-2,0E0,0E0,0E0],"parents":[2147483647,0,0,1,1,3,3],"right_children":[2,4,-1,6,-1,-1,-1],"split_conditions":[9.3934425E1,6.07905E1,2.9965054E-2,5.9193714E1,2.230037E-2,9.996559E-3,-6.5000445E-2],"split_indices":[2,1,0,5,0,0,0],"split_type":[0,0,0,0,0,0,0],"sum_hessian":[4.638494E0,3.3317125E0,1.3067818E0,2.1167648E0,1.2149477E0,1.0488518E0,1.0679128E0],"tree_param":{"num_deleted":"0","num_feature":"9","num_nodes":"7","size_leaf_vector":"1"}},{"base_weights":[1.3087665E-3,-2.1950634E-2,5.9473455E-2,-2.6303254E-2,4.879673E-2],"categories":[],"categories_nodes":[],"categories_segments":[],"categories_sizes":[],"default_left":[0,0,0,0,0],"id":82,"left_children":[1,-1,3,-1,-1],"loss_changes":[2.856973E-2,0E0,7.029828E-2,0E0,0E0],"parents":[2147483647,0,0,2,2],"right_children":[2,-1,4,-1,-1],"split_conditions":[6.4006516E1,-2.1950634E-2,2.1223318E-2,-2.6303254E-2,4.879673E-2],"split_indices":[7,0,6,0,0],"split_type":[0,0,0,0,0],"sum_hessian":[4.590567E0,1.8998837E0,2.6906834E0,1.1709818E0,1.5197016E0],"tree_param":{"num_deleted":"0","num_feature":"9","num_nodes":"5","size_leaf_vector":"1"}},{"base_weights":[1.1046584E-3,3.137943E-2,-5.448874E-2,-4.8282683E-2,1.73395E-2],"categories":[],"categories_nodes":[],"categories_segments":[],"categories_sizes":[],"default_left":[0,0,0,0,0],"id":83,"left_children":[1,-1,3,-1,-1],"loss_changes":[3.7763663E-2,0E0,6.049786E-2,0E0,0E0],"parents":[2147483647,0,0,2,2],"right_children":[2,-1,4,-1,-1],"split_conditions":[2.082944E-2,3.137943E-2,8.835261E-1,-4.8282683E-2,1.73395E-2],"split_indices":[6,0,8,0,0],"split_type":[0,0,0,0,0],"sum_hessian":[4.572947E0,1.2899933E0,3.2829537E0,1.4628196E0,1.820134E0],"tree_param":{"num_deleted":"0","num_feature":"9","num_nodes":"5","size_leaf_vector":"1"}},{"base_weights":[8.6762966E-4,-2.4452304E-2,5.5626497E-2,-1.1926366E-2,4.5674328E-2],"categories":[],"categories_nodes":[],"categories_segments":[],"categories_sizes":[],"default_left":[0,0,0,0,0],"id":84,"left_children":[1,-1,3,-1,-1],"loss_changes":[2.9595407E-2,0E0,4.2286847E-2,0E0,0E0],"parents":[2147483647,0,0,2,2],"right_children":[2,-1,4,-1,-1],"split_conditions":[6.6007164E1,-2.4452304E-2,2.6376594E-2,-1.1926366E-2,4.5674328E-2],"split_indices":[0,0,6,0,0],"split_type":[0,0,0,0,0],"sum_hessian":[4.5558963E0,1.6241533E0,2.931743E0,1.7715173E0,1.1602256E0],"tree_param":{"num_deleted":"0","num_feature":"9","num_nodes":"5","size_leaf_vector":"1"}},{"base_weights":[2.341507E-3,2.9124426E-2,-4.9029566E-2,-4.449361E-2,3.825001E-2,-3.339663E-2,4.999134E-2],"categories":[],"categories_nodes":[],"categories_segments":[],"categories_sizes":[],"default_left":[0,0,0,0,0,0,0],"id":85,"left_children":[1,-1,3,-1,5,-1,-1],"loss_changes":[3.174345E-2,0E0,4.258231E-2,0E0,7.7345185E-2,0E0,0E0],"parents":[2147483647,0,0,2,2,4,4],"right_children":[2,-1,4,-1,6,-1,-1],"split_conditions":[2.082944E-2,2.9124426E-2,2.172475E-1,-4.449361E-2,8.7280506E-1,-3.339663E-2,4.999134E-2],"split_indices":[6,0,4,0,8,0,0],"split_type":[0,0,0,0,0,0,0],"sum_hessian":[4.5443177E0,1.2848873E0,3.2594306E0,1.197721E0,2.0617096E0,1.0136858E0,1.0480237E0],"tree_param":{"num_deleted":"0","num_feature":"9","num_nodes":"7","size_leaf_vector":"1"}},{"base_weights":[1.9314383E-3,2.8977765E-2,-5.081794E-2,-4.914232E-2,1.6599331E-2],"categories":[],"categories_nodes":[],"categories_segments":[],"categories_sizes":[],"default_left":[0,0,0,0,0],"id":86,"left_children":[1,-1,3,-1,-1],"loss_changes":[3.2454047E-2,0E0,5.9409987E-2,0E0,0E0],"parents":[2147483647,0,0,2,2],"right_children":[2,-1,4,-1,-1],"split_conditions":[7.723688E-1,2.8977765E-2,6.655428E1,-4.914232E-2,1.6599331E-2],"split_indices":[8,0,0,0,0],"split_type":[0,0,0,0,0],"sum_hessian":[4.516459E0,1.3187476E0,3.1977112E0,1.2858301E0,1.9118811E0],"tree_param":{"num_deleted":"0","num_feature":"9","num_nodes":"5","size_leaf_vector":"1"}},{"base_weights":[7.109534E-4,3.0450752E-2,-4.698244E-2,4.539295E-2,-4.9157668E-2,4.848981E-2,-2.3920987E-2],"categories":[],"categories_nodes":[],"categories_segments":[],"categories_sizes":[],"default_left":[0,0,0,0,0,0,0],"id":87,"left_children":[1,-1,3,5,-1,-1,-1],"loss_changes":[3.1202437E-2,0E0,5.5117838E-2,6.015543E-2,0E0,0E0,0E0],"parents":[2147483647,0,0,2,2,3,3],"right_children":[2,-1,4,6,-1,-1,-1],"split_conditions":[2.1023637E-1,3.0450752E-2,1.154081E0,7.1783554E1,-4.9157668E-2,4.848981E-2,-2.3920987E-2],"split_indices":[4,0,8,3,0,0,0],"split_type":[0,0,0,0,0,0,0],"sum_hessian":[4.498877E0,1.0826526E0,3.4162245E0,2.2497277E0,1.1664966E0,1.0150601E0,1.2346677E0],"tree_param":{"num_deleted":"0","num_feature":"9","num_nodes":"7","size_leaf_vector":"1"}},{"base_weights":[1.6194982E-3,-4.6770193E-2,2.767725E-2,1.582905E-2,-3.7801374E-2],"categories":[],"categories_nodes":[],"categories_segments":[],"categories_sizes":[],"default_left":[0,0,0,0,0],"id":88,"left_children":[1,3,-1,-1,-1],"loss_changes":[2.8336989E-2,4.004235E-2,0E0,0E0,0E0],"parents":[2147483647,0,0,1,1],"right_children":[2,4,-1,-1,-1],"split_conditions":[9.3934425E1,5.9204784E1,2.767725E-2,1.582905E-2,-3.7801374E-2],"split_indices":[2,1,0,0,0],"split_type":[0,0,0,0,0],"sum_hessian":[4.4770613E0,3.2343173E0,1.2427438E0,1.5816025E0,1.6527147E0],"tree_param":{"num_deleted":"0","num_feature":"9","num_nodes":"5","size_leaf_vector":"1"}},{"base_weights":[2.18453E-3,-4.902692E-2,2.3140505E-2,1.4078553E-2,-4.6104237E-2],"categories":[],"categories_nodes":[],"categories_segments":[],"categories_sizes":[],"default_left":[0,0,0,0,0],"id":89,"left_children":[1,3,-1,-1,-1],"loss_changes":[2.4698697E-2,4.5862615E-2,0E0,0E0,0E0],"parents":[2147483647,0,0,1,1],"right_children":[2,4,-1,-1,-1],"split_conditions":[6.0393883E1,5.943801E1,2.3140505E-2,1.4078553E-2,-4.6104237E-2],"split_indices":[1,1,0,0,0],"split_type":[0,0,0,0,0],"sum_hessian":[4.449517E0,2.8488545E0,1.6006624E0,1.7739407E0,1.0749137E0],"tree_param":{"num_deleted":"0","num_feature":"9","num_nodes":"5","size_leaf_vector":"1"}},{"base_weights":[-9.257224E-5,-4.9618956E-2,2.8028449E-2,-1.1978791E-1,2.1069387E-2,7.6997527E-3,-6.1439723E-2],"categories":[],"categories_nodes":[],"categories_segments":[],"categories_sizes":[],"default_left":[0,0,0,0,0,0,0],"id":90,"left_children":[1,3,-1,5,-1,-1,-1],"loss_changes":[2.9836936E-2,4.3820467E-2,0E0,4.266289E-2,0E0,0E0,0E0],"parents":[2147483647,0,0,1,1,3,3],"right_children":[2,4,-1,6,-1,-1,-1],"split_conditions":[9.3934425E1,6.07905E1,2.8028449E-2,5.9193714E1,2.1069387E-2,7.6997527E-3,-6.1439723E-2],"split_indices":[2,1,0,5,0,0,0],"split_type":[0,0,0,0,0,0,0],"sum_hessian":[4.44096E0,3.210296E0,1.2306638E0,2.0251484E0,1.1851474E0,1.0045154E0,1.0206331E0],"tree_param":{"num_deleted":"0","num_feature":"9","num_nodes":"7","size_leaf_vector":"1"}},{"base_weights":[-1.0240516E-3,2.5278246E-2,-4.6274226E-2,-4.1356977E-2,1.5475182E-2],"categories":[],"categories_nodes":[],"categories_segments":[],"categories_sizes":[],"default_left":[0,0,0,0,0],"id":91,"left_children":[1,-1,3,-1,-1],"loss_changes":[2.4737723E-2,0E0,4.4513952E-2,0E0,0E0],"parents":[2147483647,0,0,2,2],"right_children":[2,-1,4,-1,-1],"split_conditions":[2.082944E-2,2.5278246E-2,8.835261E-1,-4.1356977E-2,1.5475182E-2],"split_indices":[6,0,8,0,0],"split_type":[0,0,0,0,0],"sum_hessian":[4.399788E0,1.2263414E0,3.1734467E0,1.4281486E0,1.7452979E0],"tree_param":{"num_deleted":"0","num_feature":"9","num_nodes":"5","size_leaf_vector":"1"}},{"base_weights":[-8.2013645E-4,2.5401043E-2,-4.7946226E-2,-4.0913865E-2,2.5771216E-2],"categories":[],"categories_nodes":[],"categories_segments":[],"categories_sizes":[],"default_left":[0,0,0,0,0],"id":92,"left_children":[1,-1,3,-1,-1],"loss_changes":[2.5767054E-2,0E0,6.0386468E-2,0E0,0E0],"parents":[2147483647,0,0,2,2],"right_children":[2,-1,4,-1,-1],"split_conditions":[7.723688E-1,2.5401043E-2,2.572109E-1,-4.0913865E-2,2.5771216E-2],"split_indices":[8,0,4,0,0],"split_type":[0,0,0,0,0],"sum_hessian":[4.3880363E0,1.2762144E0,3.1118217E0,1.8624357E0,1.249386E0],"tree_param":{"num_deleted":"0","num_feature":"9","num_nodes":"5","size_leaf_vector":"1"}},{"base_weights":[1.3485573E-3,2.9350707E-2,-4.494042E-2,3.9100688E-2,-4.4652663E-2,4.307841E-2,-2.5367625E-2],"categories":[],"categories_nodes":[],"categories_segments":[],"categories_sizes":[],"default_left":[0,0,0,0,0,0,0],"id":93,"left_children":[1,-1,3,5,-1,-1,-1],"loss_changes":[2.8387843E-2,0E0,4.3501295E-2,5.3202387E-2,0E0,0E0,0E0],"parents":[2147483647,0,0,2,2,3,3],"right_children":[2,-1,4,6,-1,-1,-1],"split_conditions":[2.1023637E-1,2.9350707E-2,1.154081E0,2.748181E-1,-4.4652663E-2,4.307841E-2,-2.5367625E-2],"split_indices":[4,0,8,4,0,0,0],"split_type":[0,0,0,0,0,0,0],"sum_hessian":[4.3715863E0,1.056266E0,3.3153203E0,2.177623E0,1.1376971E0,1.0928978E0,1.0847254E0],"tree_param":{"num_deleted":"0","num_feature":"9","num_nodes":"7","size_leaf_vector":"1"}},{"base_weights":[1.445842E-3,-2.21324E-2,5.1517207E-2,-1.5915431E-2,3.8506635E-2],"categories":[],"categories_nodes":[],"categories_segments":[],"categories_sizes":[],"default_left":[0,0,0,0,0],"id":94,"left_children":[1,-1,3,-1,-1],"loss_changes":[2.3953857E-2,0E0,3.7351888E-2,0E0,0E0],"parents":[2147483647,0,0,2,2],"right_children":[2,-1,4,-1,-1],"split_conditions":[6.6007164E1,-2.21324E-2,8.835261E-1,-1.5915431E-2,3.8506635E-2],"split_indices":[0,0,8,0,0],"split_type":[0,0,0,0,0],"sum_hessian":[4.3507934E0,1.5495566E0,2.8012366E0,1.3176397E0,1.4835969E0],"tree_param":{"num_deleted":"0","num_feature":"9","num_nodes":"5","size_leaf_vector":"1"}},{"base_weights":[1.1441464E-3,-4.417731E-2,2.579979E-2,-3.191111E-2,1.8730676E-2],"categories":[],"categories_nodes":[],"categories_segments":[],"categories_sizes":[],"default_left":[0,0,0,0,0],"id":95,"left_children":[1,3,-1,-1,-1],"loss_changes":[2.4338655E-2,3.4105286E-2,0E0,0E0,0E0],"parents":[2147483647,0,0,1,1],"right_children":[2,4,-1,-1,-1],"split_conditions":[9.3934425E1,6.07905E1,2.579979E-2,-3.191111E-2,1.8730676E-2],"split_indices":[2,1,0,0,0],"split_type":[0,0,0,0,0],"sum_hessian":[4.340803E0,3.1420188E0,1.1987844E0,1.9858438E0,1.1561749E0],"tree_param":{"num_deleted":"0","num_feature":"9","num_nodes":"5","size_leaf_vector":"1"}},{"base_weights":[3.189551E-3,-2.2218162E-2,5.355838E-2,-3.1731337E-2,4.8640918E-2],"categories":[],"categories_nodes":[],"categories_segments":[],"categories_sizes":[],"default_left":[0,0,0,0,0],"id":96,"left_children":[1,-1,3,-1,-1],"loss_changes":[2.467464E-2,0E0,8.292033E-2,0E0,0E0],"parents":[2147483647,0,0,2,2],"right_children":[2,-1,4,-1,-1],"split_conditions":[2.1223318E-2,-2.2218162E-2,2.2126035E-1,-3.1731337E-2,4.8640918E-2],"split_indices":[6,0,4,0,0],"split_type":[0,0,0,0,0],"sum_hessian":[4.3220506E0,1.5201893E0,2.801861E0,1.1460202E0,1.655841E0],"tree_param":{"num_deleted":"0","num_feature":"9","num_nodes":"5","size_leaf_vector":"1"}},{"base_weights":[1.3280188E-3,3.0055443E-2,-4.6353504E-2,-3.8027834E-2,1.2192729E-2],"categories":[],"categories_nodes":[],"categories_segments":[],"categories_sizes":[],"default_left":[0,0,0,0,0],"id":97,"left_children":[1,-1,3,-1,-1],"loss_changes":[2.9633634E-2,0E0,3.4951814E-2,0E0,0E0],"parents":[2147483647,0,0,2,2],"right_children":[2,-1,4,-1,-1],"split_conditions":[2.1023637E-1,3.0055443E-2,2.5769165E-1,-3.8027834E-2,1.2192729E-2],"split_indices":[4,0,4,0,0],"split_type":[0,0,0,0,0],"sum_hessian":[4.301573E0,1.0413814E0,3.2601914E0,1.4567333E0,1.8034582E0],"tree_param":{"num_deleted":"0","num_feature":"9","num_nodes":"5","size_leaf_vector":"1"}},{"base_weights":[1.7378934E-3,2.7977522E-2,-4.761995E-2,-1.15154125E-1,2.2846328E-2,-4.4931762E-2,-7.45464E-3],"categories":[],"categories_nodes":[],"categories_segments":[],"categories_sizes":[],"default_left":[0,0,0,0,0,0,0],"id":98,"left_children":[1,-1,3,5,-1,-1,-1],"loss_changes":[2.8321318E-2,0E0,4.301043E-2,5.8080927E-3,0E0,0E0,0E0],"parents":[2147483647,0,0,2,2,3,3],"right_children":[2,-1,4,6,-1,-1,-1],"split_conditions":[2.082944E-2,2.7977522E-2,1.0834047E0,1.3162971E2,2.2846328E-2,-4.4931762E-2,-7.45464E-3],"split_indices":[6,0,8,3,0,0,0],"split_type":[0,0,0,0,0,0,0],"sum_hessian":[4.2864757E0,1.1901802E0,3.096295E0,2.048326E0,1.0479692E0,1.004673E0,1.0436529E0],"tree_param":{"num_deleted":"0","num_feature":"9","num_nodes":"7","size_leaf_vector":"1"}},{"base_weights":[9.2762156E-4,2.670384E-2,-4.125418E-2,3.9065097E-2,-4.229524E-2,4.1064274E-2,-2.3326678E-2],"categories":[],"categories_nodes":[],"categories_segments":[],"categories_sizes":[],"default_left":[0,0,0,0,0,0,0],"id":99,"left_children":[1,-1,3,5,-1,-1,-1],"loss_changes":[2.325641E-2,0E0,3.9530188E-2,4.6474364E-2,0E0,0E0,0E0],"parents":[2147483647,0,0,2,2,3,3],"right_children":[2,-1,4,6,-1,-1,-1],"split_conditions":[2.1023637E-1,2.670384E-2,1.154081E0,2.748181E-1,-4.229524E-2,4.1064274E-2,-2.3326678E-2],"split_indices":[4,0,8,4,0,0,0],"split_type":[0,0,0,0,0,0,0],"sum_hessian":[4.270833E0,1.0234401E0,3.247393E0,2.135678E0,1.1117148E0,1.068929E0,1.0667491E0],"tree_param":{"num_deleted":"0","num_feature":"9","num_nodes":"7","size_leaf_vector":"1"}}]},"name":"gbtree"},"learner_model_param":{"base_score":"2.6639315E-1","boost_from_average":"1","num_class":"0","num_feature":"9","num_target":"1"},"objective":{"name":"binary:logistic","reg_loss_param":{"scale_pos_weight":"1"}}},"version":[2,1,3]}